#mdl#2#27916
#rdr#0/0/1
#qrk#1177
4:NULL,
4:T293,
4:S299,
4:V892,
4:I517,
4:R960,
4:X509,
4:R092,
4:R090,
4:J960,
3:B99,
4:J969,
4:J449,
4:I259,
4:I501,
4:X429,
4:F112,
4:Z922,
3:R98,
4:I709,
4:A419,
4:M159,
4:R418,
3:R53,
4:J690,
3:R13,
4:G309,
4:G409,
4:T178,
4:I499,
4:E669,
4:R579,
4:C349,
4:C795,
4:C787,
4:I620,
4:K922,
4:K297,
4:J189,
4:K760,
4:F102,
3:T71,
4:X709,
4:F329,
3:R99,
4:Z950,
4:I119,
4:K729,
4:E888,
4:S029,
4:X720,
4:I456,
4:W748,
4:I509,
4:G931,
3:C64,
4:C806,
4:Z741,
4:I678,
3:F03,
4:F019,
3:I10,
4:L309,
4:R680,
4:J459,
4:I500,
3:J42,
4:G932,
4:T149,
4:Y249,
3:R64,
3:L89,
4:A047,
4:S141,
4:T093,
4:W198,
4:I420,
4:R402,
4:I619,
4:I691,
4:S065,
4:W199,
4:T029,
4:T751,
4:X719,
4:F339,
4:K559,
4:I779,
4:T794,
4:X804,
4:R571,
4:K703,
4:I519,
4:R031,
4:A084,
3:C61,
3:N19,
4:R568,
4:C311,
4:C793,
4:I635,
4:J180,
4:T179,
4:I694,
3:E43,
4:B182,
4:G939,
4:D180,
4:K279,
4:K746,
4:E119,
4:I809,
4:X640,
3:F29,
4:G419,
3:E86,
4:J981,
3:I48,
3:I64,
4:C268,
3:R54,
4:R630,
4:S720,
4:E059,
4:C220,
4:I443,
4:D611,
4:J151,
4:C900,
4:J961,
4:W740,
4:C221,
4:I359,
4:Z740,
4:K659,
4:K631,
3:J80,
4:I269,
4:I803,
3:F28,
4:Z991,
4:I350,
4:C509,
4:Z958,
4:I251,
4:N189,
4:P279,
4:G934,
4:G959,
3:J13,
4:A403,
4:S062,
3:J81,
4:T599,
4:X769,
4:K529,
3:G20,
4:T814,
4:M600,
4:K920,
4:I850,
3:B59,
4:Y410,
4:E876,
4:T796,
4:X749,
4:X424,
4:F192,
4:B171,
4:B169,
4:I461,
4:Q231,
4:F438,
4:Y049,
4:D380,
4:C859,
4:C783,
4:X649,
4:G042,
3:G08,
4:C189,
4:E149,
4:C259,
3:N12,
4:S260,
4:S271,
3:T07,
4:B909,
4:Z924,
4:K720,
4:K623,
4:K660,
4:Q419,
4:K550,
4:Z904,
3:F69,
4:C329,
4:F100,
4:R068,
4:P912,
4:P271,
4:P072,
4:P023,
4:P015,
4:X420,
4:J985,
4:K223,
3:K20,
4:S099,
4:X740,
4:Z511,
4:Z858,
4:C410,
4:G060,
4:S272,
4:T145,
4:X990,
4:E875,
4:C839,
3:R95,
4:W750,
4:Q234,
3:J22,
3:J14,
4:C679,
4:C160,
4:C782,
4:C797,
4:C779,
4:J181,
4:N179,
4:Z902,
4:P298,
4:P070,
4:K566,
4:K567,
4:C719,
4:I741,
4:D682,
4:K269,
4:C450,
4:S250,
4:S252,
4:X999,
3:R18,
4:K767,
3:C20,
4:C780,
4:E870,
4:G319,
4:R638,
3:I99,
4:W744,
4:I776,
4:T791,
4:V031,
4:Z870,
4:R570,
4:I469,
4:I490,
4:I219,
4:I248,
4:J209,
4:Z923,
4:Z491,
4:E147,
4:B250,
4:S027,
4:S015,
4:X734,
4:S069,
4:Y009,
3:D65,
4:A490,
4:C803,
4:C183,
4:I442,
4:G473,
4:G903,
4:S360,
4:G978,
4:J441,
4:K766,
4:K743,
4:A498,
4:B377,
4:T827,
3:I38,
4:G629,
4:K701,
4:G122,
4:T813,
4:R601,
4:N180,
4:A415,
4:R688,
3:E46,
4:C786,
3:C23,
4:K861,
4:D414,
4:Z638,
4:P219,
4:R042,
4:D381,
4:C159,
4:I272,
4:I058,
4:I071,
4:I495,
4:K275,
4:C809,
4:I258,
4:I422,
3:T58,
4:X000,
4:S277,
4:C229,
4:T811,
4:K632,
4:C187,
4:P919,
3:P77,
4:Y844,
4:C921,
4:J988,
4:Z743,
4:F149,
4:F129,
4:P524,
4:P220,
4:J152,
4:Q790,
4:S131,
4:Z966,
4:Y836,
4:E660,
4:Z980,
4:I978,
4:Z944,
4:E851,
4:K830,
4:K838,
4:T864,
4:E872,
4:R060,
4:R262,
4:J156,
4:T782,
4:Y451,
4:J384,
4:T887,
4:J448,
4:I749,
4:A412,
4:N390,
3:I81,
4:G822,
4:E109,
4:I739,
4:I608,
4:I729,
4:I615,
4:M331,
3:Z21,
4:G936,
4:I260,
4:M319,
4:Q442,
4:T065,
4:X959,
4:W749,
4:Z600,
4:W799,
4:C792,
4:X459,
4:J439,
4:I859,
4:D469,
4:C411,
4:X090,
4:C269,
4:F179,
4:I602,
4:G935,
4:R578,
4:D377,
4:I788,
3:D45,
4:X099,
4:B181,
4:R609,
4:E880,
4:V299,
4:J159,
4:D382,
4:X809,
4:B441,
4:I702,
4:I609,
4:C851,
3:B24,
4:M844,
4:B199,
3:F99,
4:N324,
4:W189,
4:X744,
4:C224,
4:G522,
4:E343,
4:K219,
4:Z878,
4:D696,
4:D619,
4:K610,
4:W191,
4:Y230,
4:I472,
4:I210,
4:I671,
4:X490,
4:I743,
4:E145,
4:D571,
4:E831,
4:J958,
4:J920,
4:C629,
4:C798,
4:C775,
4:W179,
4:A321,
4:S399,
4:T019,
4:S311,
4:I700,
4:D461,
4:C920,
4:R049,
4:G810,
3:C19,
4:M009,
4:P369,
4:D412,
4:D374,
4:C435,
4:K869,
4:Z590,
4:F319,
4:I698,
4:I829,
4:I279,
4:I801,
4:E889,
4:S828,
4:E141,
4:X519,
4:X919,
4:X596,
4:X840,
4:X780,
4:J980,
4:C250,
4:K635,
4:C959,
4:I319,
4:Z999,
4:D689,
4:X700,
4:G001,
4:D432,
4:C819,
4:J869,
3:D62,
4:C169,
4:G809,
4:V449,
4:D471,
4:Z948,
4:E849,
4:M051,
4:W139,
4:K318,
4:Z949,
4:K765,
4:Y842,
3:D66,
3:R11,
4:X650,
4:Z867,
4:K859,
4:I959,
4:I710,
4:I712,
4:X818,
4:L989,
4:Z921,
4:Y442,
4:Z952,
4:W858,
4:P961,
3:R55,
4:I498,
4:J219,
4:T860,
4:C915,
4:W190,
3:C52,
4:P071,
4:Z903,
4:A048,
4:K810,
3:J90,
4:S420,
4:I618,
4:X701,
4:Z651,
4:K265,
4:T058,
4:W848,
4:X598,
3:C56,
4:I808,
4:N159,
4:Z749,
4:C760,
4:J989,
4:S119,
4:K805,
4:T810,
4:K220,
4:Z931,
4:Z982,
4:G919,
4:T857,
4:M899,
4:T845,
4:C340,
4:K255,
4:T173,
4:W790,
4:P916,
4:P910,
4:P021,
4:X629,
4:X619,
4:Z915,
4:E039,
4:R160,
4:T889,
4:K839,
4:E780,
4:M419,
3:F04,
4:I255,
4:X910,
4:Z951,
4:I605,
4:C950,
4:K658,
4:Z988,
4:K768,
4:J841,
4:F070,
4:G318,
4:Y149,
4:A418,
4:Z897,
3:J40,
4:K650,
4:G009,
3:A46,
4:C492,
4:Q282,
4:N288,
4:R529,
4:Z896,
4:H540,
4:A481,
4:J860,
4:T868,
4:D801,
3:R34,
4:M480,
4:G820,
4:B451,
4:D849,
4:F199,
4:K740,
4:I429,
4:Y070,
4:F209,
4:I080,
4:I515,
4:W109,
4:W176,
4:Q324,
4:P073,
4:W791,
4:I278,
4:V092,
4:K564,
4:D649,
4:K259,
4:K409,
4:Z907,
4:V091,
4:I629,
3:G98,
4:F799,
4:C781,
4:M316,
4:X708,
4:Z942,
4:Z998,
4:I270,
4:C911,
4:E871,
4:D760,
4:S269,
4:S273,
4:S219,
3:R58,
4:F429,
4:A812,
4:G819,
4:G459,
4:I604,
3:P90,
4:P013,
4:T869,
4:K928,
4:K704,
4:A411,
4:C419,
4:Z969,
4:S721,
4:X499,
3:A09,
4:T451,
4:I460,
4:X599,
4:Z864,
4:M839,
4:Z513,
4:K350,
4:K562,
4:M069,
4:I249,
4:J852,
4:I081,
4:P201,
4:Q049,
4:D464,
4:B029,
4:Z036,
4:G049,
4:R048,
4:T828,
4:S822,
4:D352,
4:B582,
4:G259,
4:F142,
4:I714,
4:I652,
4:P523,
4:P229,
4:Q390,
4:Q318,
4:K745,
4:Y830,
4:V294,
4:P285,
4:D391,
4:E854,
4:K858,
4:I713,
4:X449,
4:F172,
4:F632,
3:K37,
4:C830,
4:D762,
4:D472,
4:M543,
4:V694,
4:F107,
4:I738,
4:P209,
4:P780,
4:R091,
4:C459,
3:N10,
4:C099,
4:Z901,
4:S729,
4:T116,
4:W314,
4:M219,
3:C55,
4:X807,
4:C771,
4:K639,
4:Q210,
4:E878,
4:M628,
4:S224,
4:I693,
4:I313,
4:Z468,
4:K621,
4:D259,
4:N832,
4:I711,
4:O994,
4:O300,
4:X590,
4:K565,
4:V494,
4:C712,
4:X814,
4:J440,
4:E108,
4:W809,
3:R17,
4:G312,
4:N170,
4:K918,
4:I059,
4:E835,
4:I110,
4:F500,
4:F322,
4:S328,
3:R91,
4:Y433,
4:R509,
4:C919,
4:C439,
4:C794,
4:S297,
4:Z630,
4:I718,
4:I214,
4:T300,
4:E117,
3:R02,
4:Z905,
4:P375,
4:P398,
4:C833,
4:F104,
4:E274,
4:R298,
4:A394,
3:R51,
4:M809,
4:C249,
4:Q209,
4:Z968,
4:C788,
4:R470,
4:I209,
4:I630,
4:Y362,
4:X954,
3:L97,
4:B259,
4:G039,
4:R268,
4:T840,
4:C182,
4:G405,
4:R443,
4:S711,
4:S010,
4:S357,
4:S310,
4:S210,
4:X594,
3:C73,
4:C729,
4:D320,
4:G912,
4:Y848,
4:Q283,
4:M463,
4:Q249,
4:Q221,
4:Q201,
4:D821,
4:Q935,
4:C180,
4:Z515,
4:K520,
4:D486,
4:Z940,
3:J46,
4:Q600,
4:J939,
4:I339,
4:Z871,
4:I309,
4:D509,
4:P809,
4:P027,
4:P011,
4:N419,
4:C910,
4:G301,
4:X690,
4:I426,
4:K449,
4:G712,
4:S066,
4:W180,
4:R482,
4:F509,
4:K668,
4:D473,
4:I330,
4:C341,
4:M549,
4:D126,
4:J929,
4:K573,
4:T175,
4:K469,
4:M349,
4:P616,
4:Q439,
4:C481,
4:K750,
4:D487,
4:I351,
4:D462,
4:V959,
4:F200,
3:D67,
4:I638,
4:G231,
4:R400,
4:R190,
3:G10,
4:C252,
4:I050,
4:C155,
4:K227,
4:I312,
3:B49,
4:Q250,
4:A499,
4:P059,
4:G938,
4:R100,
4:H919,
3:J47,
4:D329,
4:Y199,
3:N40,
4:J208,
4:M402,
3:C01,
4:Z933,
4:I613,
4:X849,
4:W760,
3:E65,
4:K761,
4:I971,
4:Y831,
4:K831,
4:C241,
4:I891,
4:S270,
4:T404,
4:T148,
4:S367,
4:Y482,
3:T68,
4:R410,
4:S254,
4:Y832,
4:Q909,
4:W236,
4:X470,
4:Z723,
4:R700,
4:F603,
4:P002,
4:Q189,
4:D752,
4:P018,
4:K823,
4:X431,
4:R001,
4:I614,
4:Z532,
4:M311,
4:P050,
4:T913,
4:P968,
3:M45,
4:D529,
4:T818,
4:C119,
4:Y522,
4:C689,
4:I611,
4:J188,
4:E725,
4:F028,
4:K769,
4:M199,
3:A86,
4:C400,
4:L120,
4:Q613,
3:U88,
4:T846,
4:K625,
3:T66,
4:K317,
4:P200,
4:P918,
4:P290,
4:D371,
4:W237,
4:X718,
4:F608,
4:J942,
4:Y859,
4:G834,
4:K700,
4:W792,
4:Z960,
4:D690,
4:Y835,
4:E142,
4:M869,
4:W780,
4:M819,
4:Y019,
4:Z928,
4:A162,
4:R460,
4:D898,
4:D572,
4:Z539,
4:T290,
4:Y260,
4:E162,
4:X450,
4:Z930,
4:D410,
4:N135,
4:P293,
4:P292,
4:P082,
4:P008,
4:P360,
4:C029,
3:Y66,
4:E148,
4:Q897,
4:C845,
4:K820,
4:Q254,
4:Q878,
4:P280,
4:P012,
4:Y000,
4:I871,
4:C539,
4:B379,
4:S355,
4:V282,
3:X59,
4:R634,
3:C12,
4:K295,
4:C530,
4:C433,
4:C469,
4:S598,
4:S724,
4:I610,
4:I428,
4:P788,
4:I514,
4:I409,
4:C772,
4:P399,
4:J029,
4:Q999,
4:Y040,
4:G700,
4:Y042,
4:W192,
4:I051,
4:R222,
4:M479,
4:S361,
4:X802,
4:J628,
4:Z853,
4:I744,
4:M000,
4:I513,
4:X702,
4:Z575,
4:Z579,
4:M359,
4:R591,
4:E140,
4:E169,
4:S134,
4:W174,
4:B440,
4:B019,
4:Q223,
4:I639,
4:K661,
4:I772,
4:Q410,
4:Q211,
4:Q279,
4:X504,
4:K264,
4:A319,
4:D683,
4:I740,
4:C301,
4:Y839,
4:R040,
4:K068,
4:D480,
4:T855,
4:K561,
4:S368,
3:T08,
4:S421,
4:N289,
4:Q059,
4:W124,
4:D869,
4:D489,
4:D441,
3:C07,
4:Y540,
4:I632,
4:M485,
4:L038,
4:Y453,
4:T790,
4:S157,
4:X789,
4:Q252,
4:A410,
4:S750,
4:S398,
4:S829,
4:Z900,
4:I211,
3:D70,
4:W130,
4:I200,
4:M790,
4:K819,
4:C184,
4:G825,
3:G35,
4:P769,
4:P000,
4:A199,
4:A188,
4:C343,
4:X442,
4:C109,
4:R401,
4:J959,
4:H350,
4:I890,
4:L022,
4:I079,
4:K921,
4:C778,
4:C929,
4:I621,
4:E144,
4:M100,
4:Z518,
4:R296,
4:G961,
4:R221,
4:A169,
4:K229,
4:C711,
4:I745,
4:N200,
4:M889,
4:I679,
4:I802,
4:K572,
4:R000,
4:B332,
4:J111,
4:X458,
4:K112,
4:D868,
4:D860,
4:Z492,
4:N059,
4:G458,
4:K510,
4:Z908,
4:D430,
4:I719,
4:Z941,
4:T861,
4:T021,
4:L930,
4:C770,
4:Y434,
4:K509,
4:W759,
4:M726,
4:G008,
4:I780,
4:H409,
4:K913,
4:G950,
4:L039,
4:K579,
4:I129,
4:J849,
4:G711,
4:A413,
4:E222,
4:S327,
4:W100,
4:C170,
4:V139,
4:P034,
4:Q870,
4:I839,
4:W170,
4:C549,
4:X844,
4:P522,
4:P268,
4:A858,
4:V093,
4:N139,
4:C049,
4:E789,
4:N498,
4:D695,
4:K763,
4:P038,
4:K359,
4:W879,
4:D569,
4:G119,
4:I781,
4:I634,
4:E049,
4:I951,
3:I00,
4:Z895,
4:L942,
4:C718,
4:D648,
4:I340,
4:G403,
#qrk#5170
3:uu1,
3:uu2,
3:uu3,
3:uu4,
3:uu5,
3:uu6,
3:uu7,
3:uu8,
3:uu9,
4:uu10,
4:uu11,
4:uu12,
4:uu13,
4:uu14,
4:uu15,
4:uu16,
4:uu17,
4:uu18,
4:uu19,
4:uu20,
4:uu21,
4:uu22,
4:uu23,
4:uu24,
4:uu25,
4:uu26,
4:uu27,
4:uu28,
4:uu29,
4:uu30,
4:uu31,
4:uu32,
4:uu33,
4:uu34,
4:uu35,
4:uu36,
4:uu37,
4:uu38,
4:uu39,
4:uu40,
4:uu41,
4:uu42,
4:uu43,
4:uu44,
4:uu45,
4:uu46,
4:uu47,
4:uu48,
4:uu49,
4:uu50,
4:uu51,
4:uu52,
4:uu53,
4:uu54,
4:uu55,
4:uu56,
4:uu57,
4:uu58,
4:uu59,
4:uu60,
4:uu61,
4:uu62,
4:uu63,
4:uu64,
4:uu65,
4:uu66,
4:uu67,
4:uu68,
4:uu69,
4:uu70,
4:uu71,
4:uu72,
4:uu73,
4:uu74,
4:uu75,
4:uu76,
4:uu77,
4:uu78,
4:uu79,
4:uu80,
4:uu81,
4:uu82,
4:uu83,
4:uu84,
4:uu85,
4:uu86,
4:uu87,
4:uu88,
4:uu89,
4:uu90,
4:uu91,
4:uu92,
4:uu93,
4:uu94,
4:uu95,
4:uu96,
4:uu97,
4:uu98,
4:uu99,
5:uu100,
5:uu101,
5:uu102,
5:uu103,
5:uu104,
5:uu105,
5:uu106,
5:uu107,
5:uu108,
5:uu109,
5:uu110,
5:uu111,
5:uu112,
5:uu113,
5:uu114,
5:uu115,
5:uu116,
5:uu117,
5:uu118,
5:uu119,
5:uu120,
5:uu121,
5:uu122,
5:uu123,
5:uu124,
5:uu125,
5:uu126,
5:uu127,
5:uu128,
5:uu129,
5:uu130,
5:uu131,
5:uu132,
5:uu133,
5:uu134,
5:uu135,
5:uu136,
5:uu137,
5:uu138,
5:uu139,
5:uu140,
5:uu141,
5:uu142,
5:uu143,
5:uu144,
5:uu145,
5:uu146,
5:uu147,
5:uu148,
5:uu149,
5:uu150,
5:uu151,
5:uu152,
5:uu153,
5:uu154,
5:uu155,
5:uu156,
5:uu157,
5:uu158,
5:uu159,
5:uu160,
5:uu161,
5:uu162,
5:uu163,
5:uu164,
5:uu165,
5:uu166,
5:uu167,
5:uu168,
5:uu169,
5:uu170,
5:uu171,
5:uu172,
5:uu173,
5:uu174,
5:uu175,
5:uu176,
5:uu177,
5:uu178,
5:uu179,
5:uu180,
5:uu181,
5:uu182,
5:uu183,
5:uu184,
5:uu185,
5:uu186,
5:uu187,
5:uu188,
5:uu189,
5:uu190,
5:uu191,
5:uu192,
5:uu193,
5:uu194,
5:uu195,
5:uu196,
5:uu197,
5:uu198,
5:uu199,
5:uu200,
5:uu201,
5:uu202,
5:uu203,
5:uu204,
5:uu205,
5:uu206,
5:uu207,
5:uu208,
5:uu209,
5:uu210,
5:uu211,
5:uu212,
5:uu213,
5:uu214,
5:uu215,
5:uu216,
5:uu217,
5:uu218,
5:uu219,
5:uu220,
5:uu221,
5:uu222,
5:uu223,
5:uu224,
5:uu225,
5:uu226,
5:uu227,
5:uu228,
5:uu229,
5:uu230,
5:uu231,
5:uu232,
5:uu233,
5:uu234,
5:uu235,
5:uu236,
5:uu237,
5:uu238,
5:uu239,
5:uu240,
5:uu241,
5:uu242,
5:uu243,
5:uu244,
5:uu245,
5:uu246,
5:uu247,
5:uu248,
5:uu249,
5:uu250,
5:uu251,
5:uu252,
5:uu253,
5:uu254,
5:uu255,
5:uu256,
5:uu257,
5:uu258,
5:uu259,
5:uu260,
5:uu261,
5:uu262,
5:uu263,
5:uu264,
5:uu265,
5:uu266,
5:uu267,
5:uu268,
5:uu269,
5:uu270,
5:uu271,
5:uu272,
5:uu273,
5:uu274,
5:uu275,
5:uu276,
5:uu277,
5:uu278,
5:uu279,
5:uu280,
5:uu281,
5:uu282,
5:uu283,
5:uu284,
5:uu285,
5:uu286,
5:uu287,
5:uu288,
5:uu289,
5:uu290,
5:uu291,
5:uu292,
5:uu293,
5:uu294,
5:uu295,
5:uu296,
5:uu297,
5:uu298,
5:uu299,
5:uu300,
5:uu301,
5:uu302,
5:uu303,
5:uu304,
5:uu305,
5:uu306,
5:uu307,
5:uu308,
5:uu309,
5:uu310,
5:uu311,
5:uu312,
5:uu313,
5:uu314,
5:uu315,
5:uu316,
5:uu317,
5:uu318,
5:uu319,
5:uu320,
5:uu321,
5:uu322,
5:uu323,
5:uu324,
5:uu325,
5:uu326,
5:uu327,
5:uu328,
5:uu329,
5:uu330,
5:uu331,
5:uu332,
5:uu333,
5:uu334,
5:uu335,
5:uu336,
5:uu337,
5:uu338,
5:uu339,
5:uu340,
5:uu341,
5:uu342,
5:uu343,
5:uu344,
5:uu345,
5:uu346,
5:uu347,
5:uu348,
5:uu349,
5:uu350,
5:uu351,
5:uu352,
5:uu353,
5:uu354,
5:uu355,
5:uu356,
5:uu357,
5:uu358,
5:uu359,
5:uu360,
5:uu361,
5:uu362,
5:uu363,
5:uu364,
5:uu365,
5:uu366,
5:uu367,
5:uu368,
5:uu369,
5:uu370,
5:uu371,
5:uu372,
5:uu373,
5:uu374,
5:uu375,
5:uu376,
5:uu377,
5:uu378,
5:uu379,
5:uu380,
5:uu381,
5:uu382,
5:uu383,
5:uu384,
5:uu385,
5:uu386,
5:uu387,
5:uu388,
5:uu389,
5:uu390,
5:uu391,
5:uu392,
5:uu393,
5:uu394,
5:uu395,
5:uu396,
5:uu397,
5:uu398,
5:uu399,
5:uu400,
5:uu401,
5:uu402,
5:uu403,
5:uu404,
5:uu405,
5:uu406,
5:uu407,
5:uu408,
5:uu409,
5:uu410,
5:uu411,
5:uu412,
5:uu413,
5:uu414,
5:uu415,
5:uu416,
5:uu417,
5:uu418,
5:uu419,
5:uu420,
5:uu421,
5:uu422,
5:uu423,
5:uu424,
5:uu425,
5:uu426,
5:uu427,
5:uu428,
5:uu429,
5:uu430,
5:uu431,
5:uu432,
5:uu433,
5:uu434,
5:uu435,
5:uu436,
5:uu437,
5:uu438,
5:uu439,
5:uu440,
5:uu441,
5:uu442,
5:uu443,
5:uu444,
5:uu445,
5:uu446,
5:uu447,
5:uu448,
5:uu449,
5:uu450,
5:uu451,
5:uu452,
5:uu453,
5:uu454,
5:uu455,
5:uu456,
5:uu457,
5:uu458,
5:uu459,
5:uu460,
5:uu461,
5:uu462,
5:uu463,
5:uu464,
5:uu465,
5:uu466,
5:uu467,
5:uu468,
5:uu469,
5:uu470,
5:uu471,
5:uu472,
5:uu473,
5:uu474,
5:uu475,
5:uu476,
5:uu477,
5:uu478,
5:uu479,
5:uu480,
5:uu481,
5:uu482,
5:uu483,
5:uu484,
5:uu485,
5:uu486,
5:uu487,
5:uu488,
5:uu489,
5:uu490,
5:uu491,
5:uu492,
5:uu493,
5:uu494,
5:uu495,
5:uu496,
5:uu497,
5:uu498,
5:uu499,
5:uu500,
5:uu501,
5:uu502,
5:uu503,
5:uu504,
5:uu505,
5:uu506,
5:uu507,
5:uu508,
5:uu509,
5:uu510,
5:uu511,
5:uu512,
5:uu513,
5:uu514,
5:uu515,
5:uu516,
5:uu517,
5:uu518,
5:uu519,
5:uu520,
5:uu521,
5:uu522,
5:uu523,
5:uu524,
5:uu525,
5:uu526,
5:uu527,
5:uu528,
5:uu529,
5:uu530,
5:uu531,
5:uu532,
5:uu533,
5:uu534,
5:uu535,
5:uu536,
5:uu537,
5:uu538,
5:uu539,
5:uu540,
5:uu541,
5:uu542,
5:uu543,
5:uu544,
5:uu545,
5:uu546,
5:uu547,
5:uu548,
5:uu549,
5:uu550,
5:uu551,
5:uu552,
5:uu553,
5:uu554,
5:uu555,
5:uu556,
5:uu557,
5:uu558,
5:uu559,
5:uu560,
5:uu561,
5:uu562,
5:uu563,
5:uu564,
5:uu565,
5:uu566,
5:uu567,
5:uu568,
5:uu569,
5:uu570,
5:uu571,
5:uu572,
5:uu573,
5:uu574,
5:uu575,
5:uu576,
5:uu577,
5:uu578,
5:uu579,
5:uu580,
5:uu581,
5:uu582,
5:uu583,
5:uu584,
5:uu585,
5:uu586,
5:uu587,
5:uu588,
5:uu589,
5:uu590,
5:uu591,
5:uu592,
5:uu593,
5:uu594,
5:uu595,
5:uu596,
5:uu597,
5:uu598,
5:uu599,
5:uu600,
5:uu601,
5:uu602,
5:uu603,
5:uu604,
5:uu605,
5:uu606,
5:uu607,
5:uu608,
5:uu609,
5:uu610,
5:uu611,
5:uu612,
5:uu613,
5:uu614,
5:uu615,
5:uu616,
5:uu617,
5:uu618,
5:uu619,
5:uu620,
5:uu621,
5:uu622,
5:uu623,
5:uu624,
5:uu625,
5:uu626,
5:uu627,
5:uu628,
5:uu629,
5:uu630,
5:uu631,
5:uu632,
5:uu633,
5:uu634,
5:uu635,
5:uu636,
5:uu637,
5:uu638,
5:uu639,
5:uu640,
5:uu641,
5:uu642,
5:uu643,
5:uu644,
5:uu645,
5:uu646,
5:uu647,
5:uu648,
5:uu649,
5:uu650,
5:uu651,
5:uu652,
5:uu653,
5:uu654,
5:uu655,
5:uu656,
5:uu657,
5:uu658,
5:uu659,
5:uu660,
5:uu661,
5:uu662,
5:uu663,
5:uu664,
5:uu665,
5:uu666,
5:uu667,
5:uu668,
5:uu669,
5:uu670,
5:uu671,
5:uu672,
5:uu673,
5:uu674,
5:uu675,
5:uu676,
5:uu677,
5:uu678,
5:uu679,
5:uu680,
5:uu681,
5:uu682,
5:uu683,
5:uu684,
5:uu685,
5:uu686,
5:uu687,
5:uu688,
5:uu689,
5:uu690,
5:uu691,
5:uu692,
5:uu693,
5:uu694,
5:uu695,
5:uu696,
5:uu697,
5:uu698,
5:uu699,
5:uu700,
5:uu701,
5:uu702,
5:uu703,
5:uu704,
5:uu705,
5:uu706,
5:uu707,
5:uu708,
5:uu709,
5:uu710,
5:uu711,
5:uu712,
5:uu713,
5:uu714,
5:uu715,
5:uu716,
5:uu717,
5:uu718,
5:uu719,
5:uu720,
5:uu721,
5:uu722,
5:uu723,
5:uu724,
5:uu725,
5:uu726,
5:uu727,
5:uu728,
5:uu729,
5:uu730,
5:uu731,
5:uu732,
5:uu733,
5:uu734,
5:uu735,
5:uu736,
5:uu737,
5:uu738,
5:uu739,
5:uu740,
5:uu741,
5:uu742,
5:uu743,
5:uu744,
5:uu745,
5:uu746,
5:uu747,
5:uu748,
5:uu749,
5:uu750,
5:uu751,
5:uu752,
5:uu753,
5:uu754,
5:uu755,
5:uu756,
5:uu757,
5:uu758,
5:uu759,
5:uu760,
5:uu761,
5:uu762,
5:uu763,
5:uu764,
5:uu765,
5:uu766,
5:uu767,
5:uu768,
5:uu769,
5:uu770,
5:uu771,
5:uu772,
5:uu773,
5:uu774,
5:uu775,
5:uu776,
5:uu777,
5:uu778,
5:uu779,
5:uu780,
5:uu781,
5:uu782,
5:uu783,
5:uu784,
5:uu785,
5:uu786,
5:uu787,
5:uu788,
5:uu789,
5:uu790,
5:uu791,
5:uu792,
5:uu793,
5:uu794,
5:uu795,
5:uu796,
5:uu797,
5:uu798,
5:uu799,
5:uu800,
5:uu801,
5:uu802,
5:uu803,
5:uu804,
5:uu805,
5:uu806,
5:uu807,
5:uu808,
5:uu809,
5:uu810,
5:uu811,
5:uu812,
5:uu813,
5:uu814,
5:uu815,
5:uu816,
5:uu817,
5:uu818,
5:uu819,
5:uu820,
5:uu821,
5:uu822,
5:uu823,
5:uu824,
5:uu825,
5:uu826,
5:uu827,
5:uu828,
5:uu829,
5:uu830,
5:uu831,
5:uu832,
5:uu833,
5:uu834,
5:uu835,
5:uu836,
5:uu837,
5:uu838,
5:uu839,
5:uu840,
5:uu841,
5:uu842,
5:uu843,
5:uu844,
5:uu845,
5:uu846,
5:uu847,
5:uu848,
5:uu849,
5:uu850,
5:uu851,
5:uu852,
5:uu853,
5:uu854,
5:uu855,
5:uu856,
5:uu857,
5:uu858,
5:uu859,
5:uu860,
5:uu861,
5:uu862,
5:uu863,
5:uu864,
5:uu865,
5:uu866,
5:uu867,
5:uu868,
5:uu869,
5:uu870,
5:uu871,
5:uu872,
5:uu873,
5:uu874,
5:uu875,
5:uu876,
5:uu877,
5:uu878,
5:uu879,
5:uu880,
5:uu881,
5:uu882,
5:uu883,
5:uu884,
5:uu885,
5:uu886,
5:uu887,
5:uu888,
5:uu889,
5:uu890,
5:uu891,
5:uu892,
5:uu893,
5:uu894,
5:uu895,
5:uu896,
5:uu897,
5:uu898,
5:uu899,
5:uu900,
5:uu901,
5:uu902,
5:uu903,
5:uu904,
5:uu905,
5:uu906,
5:uu907,
5:uu908,
5:uu909,
5:uu910,
5:uu911,
5:uu912,
5:uu913,
5:uu914,
5:uu915,
5:uu916,
5:uu917,
5:uu918,
5:uu919,
5:uu920,
5:uu921,
5:uu922,
5:uu923,
5:uu924,
5:uu925,
5:uu926,
5:uu927,
5:uu928,
5:uu929,
5:uu930,
5:uu931,
5:uu932,
5:uu933,
5:uu934,
5:uu935,
5:uu936,
5:uu937,
5:uu938,
5:uu939,
5:uu940,
5:uu941,
5:uu942,
5:uu943,
5:uu944,
5:uu945,
5:uu946,
5:uu947,
5:uu948,
5:uu949,
5:uu950,
5:uu951,
5:uu952,
5:uu953,
5:uu954,
5:uu955,
5:uu956,
5:uu957,
5:uu958,
5:uu959,
5:uu960,
5:uu961,
5:uu962,
5:uu963,
5:uu964,
5:uu965,
5:uu966,
5:uu967,
5:uu968,
5:uu969,
5:uu970,
5:uu971,
5:uu972,
5:uu973,
5:uu974,
5:uu975,
5:uu976,
5:uu977,
5:uu978,
5:uu979,
5:uu980,
5:uu981,
5:uu982,
5:uu983,
5:uu984,
5:uu985,
5:uu986,
5:uu987,
5:uu988,
5:uu989,
5:uu990,
5:uu991,
5:uu992,
5:uu993,
5:uu994,
5:uu995,
5:uu996,
5:uu997,
5:uu998,
5:uu999,
6:uu1000,
6:uu1001,
6:uu1002,
6:uu1003,
6:uu1004,
6:uu1005,
6:uu1006,
6:uu1007,
6:uu1008,
6:uu1009,
6:uu1010,
6:uu1011,
6:uu1012,
6:uu1013,
6:uu1014,
6:uu1015,
6:uu1016,
6:uu1017,
6:uu1018,
6:uu1019,
6:uu1020,
6:uu1021,
6:uu1022,
6:uu1023,
6:uu1024,
6:uu1025,
6:uu1026,
6:uu1027,
6:uu1028,
6:uu1029,
6:uu1030,
6:uu1031,
6:uu1032,
6:uu1033,
6:uu1034,
6:uu1035,
6:uu1036,
6:uu1037,
6:uu1038,
6:uu1039,
6:uu1040,
6:uu1041,
6:uu1042,
6:uu1043,
6:uu1044,
6:uu1045,
6:uu1046,
6:uu1047,
6:uu1048,
6:uu1049,
6:uu1050,
6:uu1051,
6:uu1052,
6:uu1053,
6:uu1054,
6:uu1055,
6:uu1056,
6:uu1057,
6:uu1058,
6:uu1059,
6:uu1060,
6:uu1061,
6:uu1062,
6:uu1063,
6:uu1064,
6:uu1065,
6:uu1066,
6:uu1067,
6:uu1068,
6:uu1069,
6:uu1070,
6:uu1071,
6:uu1072,
6:uu1073,
6:uu1074,
6:uu1075,
6:uu1076,
6:uu1077,
6:uu1078,
6:uu1079,
6:uu1080,
6:uu1081,
6:uu1082,
6:uu1083,
6:uu1084,
6:uu1085,
6:uu1086,
6:uu1087,
6:uu1088,
6:uu1089,
6:uu1090,
6:uu1091,
6:uu1092,
6:uu1093,
6:uu1094,
6:uu1095,
6:uu1096,
6:uu1097,
6:uu1098,
6:uu1099,
6:uu1100,
6:uu1101,
6:uu1102,
6:uu1103,
6:uu1104,
6:uu1105,
6:uu1106,
6:uu1107,
6:uu1108,
6:uu1109,
6:uu1110,
6:uu1111,
6:uu1112,
6:uu1113,
6:uu1114,
6:uu1115,
6:uu1116,
6:uu1117,
6:uu1118,
6:uu1119,
6:uu1120,
6:uu1121,
6:uu1122,
6:uu1123,
6:uu1124,
6:uu1125,
6:uu1126,
6:uu1127,
6:uu1128,
6:uu1129,
6:uu1130,
6:uu1131,
6:uu1132,
6:uu1133,
6:uu1134,
6:uu1135,
6:uu1136,
6:uu1137,
6:uu1138,
6:uu1139,
6:uu1140,
6:uu1141,
6:uu1142,
6:uu1143,
6:uu1144,
6:uu1145,
6:uu1146,
6:uu1147,
6:uu1148,
6:uu1149,
6:uu1150,
6:uu1151,
6:uu1152,
6:uu1153,
6:uu1154,
6:uu1155,
6:uu1156,
6:uu1157,
6:uu1158,
6:uu1159,
6:uu1160,
6:uu1161,
6:uu1162,
6:uu1163,
6:uu1164,
6:uu1165,
6:uu1166,
6:uu1167,
6:uu1168,
6:uu1169,
6:uu1170,
6:uu1171,
6:uu1172,
6:uu1173,
6:uu1174,
6:uu1175,
6:uu1176,
6:uu1177,
6:uu1178,
6:uu1179,
6:uu1180,
6:uu1181,
6:uu1182,
6:uu1183,
6:uu1184,
6:uu1185,
6:uu1186,
6:uu1187,
6:uu1188,
6:uu1189,
6:uu1190,
6:uu1191,
6:uu1192,
6:uu1193,
6:uu1194,
6:uu1195,
6:uu1196,
6:uu1197,
6:uu1198,
6:uu1199,
6:uu1200,
6:uu1201,
6:uu1202,
6:uu1203,
6:uu1204,
6:uu1205,
6:uu1206,
6:uu1207,
6:uu1208,
6:uu1209,
6:uu1210,
6:uu1211,
6:uu1212,
6:uu1213,
6:uu1214,
6:uu1215,
6:uu1216,
6:uu1217,
6:uu1218,
6:uu1219,
6:uu1220,
6:uu1221,
6:uu1222,
6:uu1223,
6:uu1224,
6:uu1225,
6:uu1226,
6:uu1227,
6:uu1228,
6:uu1229,
6:uu1230,
6:uu1231,
6:uu1232,
6:uu1233,
6:uu1234,
6:uu1235,
6:uu1236,
6:uu1237,
6:uu1238,
6:uu1239,
6:uu1240,
6:uu1241,
6:uu1242,
6:uu1243,
6:uu1244,
6:uu1245,
6:uu1246,
6:uu1247,
6:uu1248,
6:uu1249,
6:uu1250,
6:uu1251,
6:uu1252,
6:uu1253,
6:uu1254,
6:uu1255,
6:uu1256,
6:uu1257,
6:uu1258,
6:uu1259,
6:uu1260,
6:uu1261,
6:uu1262,
6:uu1263,
6:uu1264,
6:uu1265,
6:uu1266,
6:uu1267,
6:uu1268,
6:uu1269,
6:uu1270,
6:uu1271,
6:uu1272,
6:uu1273,
6:uu1274,
6:uu1275,
6:uu1276,
6:uu1277,
6:uu1278,
6:uu1279,
6:uu1280,
6:uu1281,
6:uu1282,
6:uu1283,
6:uu1284,
6:uu1285,
6:uu1286,
6:uu1287,
6:uu1288,
6:uu1289,
6:uu1290,
6:uu1291,
6:uu1292,
6:uu1293,
6:uu1294,
6:uu1295,
6:uu1296,
6:uu1297,
6:uu1298,
6:uu1299,
6:uu1300,
6:uu1301,
6:uu1302,
6:uu1303,
6:uu1304,
6:uu1305,
6:uu1306,
6:uu1307,
6:uu1308,
6:uu1309,
6:uu1310,
6:uu1311,
6:uu1312,
6:uu1313,
6:uu1314,
6:uu1315,
6:uu1316,
6:uu1317,
6:uu1318,
6:uu1319,
6:uu1320,
6:uu1321,
6:uu1322,
6:uu1323,
6:uu1324,
6:uu1325,
6:uu1326,
6:uu1327,
6:uu1328,
6:uu1329,
6:uu1330,
6:uu1331,
6:uu1332,
6:uu1333,
6:uu1334,
6:uu1335,
6:uu1336,
6:uu1337,
6:uu1338,
6:uu1339,
6:uu1340,
6:uu1341,
6:uu1342,
6:uu1343,
6:uu1344,
6:uu1345,
6:uu1346,
6:uu1347,
6:uu1348,
6:uu1349,
6:uu1350,
6:uu1351,
6:uu1352,
6:uu1353,
6:uu1354,
6:uu1355,
6:uu1356,
6:uu1357,
6:uu1358,
6:uu1359,
6:uu1360,
6:uu1361,
6:uu1362,
6:uu1363,
6:uu1364,
6:uu1365,
6:uu1366,
6:uu1367,
6:uu1368,
6:uu1369,
6:uu1370,
6:uu1371,
6:uu1372,
6:uu1373,
6:uu1374,
6:uu1375,
6:uu1376,
6:uu1377,
6:uu1378,
6:uu1379,
6:uu1380,
6:uu1381,
6:uu1382,
6:uu1383,
6:uu1384,
6:uu1385,
6:uu1386,
6:uu1387,
6:uu1388,
6:uu1389,
6:uu1390,
6:uu1391,
6:uu1392,
6:uu1393,
6:uu1394,
6:uu1395,
6:uu1396,
6:uu1397,
6:uu1398,
6:uu1399,
6:uu1400,
6:uu1401,
6:uu1402,
6:uu1403,
6:uu1404,
6:uu1405,
6:uu1406,
6:uu1407,
6:uu1408,
6:uu1409,
6:uu1410,
6:uu1411,
6:uu1412,
6:uu1413,
6:uu1414,
6:uu1415,
6:uu1416,
6:uu1417,
6:uu1418,
6:uu1419,
6:uu1420,
6:uu1421,
6:uu1422,
6:uu1423,
6:uu1424,
6:uu1425,
6:uu1426,
6:uu1427,
6:uu1428,
6:uu1429,
6:uu1430,
6:uu1431,
6:uu1432,
6:uu1433,
6:uu1434,
6:uu1435,
6:uu1436,
6:uu1437,
6:uu1438,
6:uu1439,
6:uu1440,
6:uu1441,
6:uu1442,
6:uu1443,
6:uu1444,
6:uu1445,
6:uu1446,
6:uu1447,
6:uu1448,
6:uu1449,
6:uu1450,
6:uu1451,
6:uu1452,
6:uu1453,
6:uu1454,
6:uu1455,
6:uu1456,
6:uu1457,
6:uu1458,
6:uu1459,
6:uu1460,
6:uu1461,
6:uu1462,
6:uu1463,
6:uu1464,
6:uu1465,
6:uu1466,
6:uu1467,
6:uu1468,
6:uu1469,
6:uu1470,
6:uu1471,
6:uu1472,
6:uu1473,
6:uu1474,
6:uu1475,
6:uu1476,
6:uu1477,
6:uu1478,
6:uu1479,
6:uu1480,
6:uu1481,
6:uu1482,
6:uu1483,
6:uu1484,
6:uu1485,
6:uu1486,
6:uu1487,
6:uu1488,
6:uu1489,
6:uu1490,
6:uu1491,
6:uu1492,
6:uu1493,
6:uu1494,
6:uu1495,
6:uu1496,
6:uu1497,
6:uu1498,
6:uu1499,
6:uu1500,
6:uu1501,
6:uu1502,
6:uu1503,
6:uu1504,
6:uu1505,
6:uu1506,
6:uu1507,
6:uu1508,
6:uu1509,
6:uu1510,
6:uu1511,
6:uu1512,
6:uu1513,
6:uu1514,
6:uu1515,
6:uu1516,
6:uu1517,
6:uu1518,
6:uu1519,
6:uu1520,
6:uu1521,
6:uu1522,
6:uu1523,
6:uu1524,
6:uu1525,
6:uu1526,
6:uu1527,
6:uu1528,
6:uu1529,
6:uu1530,
6:uu1531,
6:uu1532,
6:uu1533,
6:uu1534,
6:uu1535,
6:uu1536,
6:uu1537,
6:uu1538,
6:uu1539,
6:uu1540,
6:uu1541,
6:uu1542,
6:uu1543,
6:uu1544,
6:uu1545,
6:uu1546,
6:uu1547,
6:uu1548,
6:uu1549,
6:uu1550,
6:uu1551,
6:uu1552,
6:uu1553,
6:uu1554,
6:uu1555,
6:uu1556,
6:uu1557,
6:uu1558,
6:uu1559,
6:uu1560,
6:uu1561,
6:uu1562,
6:uu1563,
6:uu1564,
6:uu1565,
6:uu1566,
6:uu1567,
6:uu1568,
6:uu1569,
6:uu1570,
6:uu1571,
6:uu1572,
6:uu1573,
6:uu1574,
6:uu1575,
6:uu1576,
6:uu1577,
6:uu1578,
6:uu1579,
6:uu1580,
6:uu1581,
6:uu1582,
6:uu1583,
6:uu1584,
6:uu1585,
6:uu1586,
6:uu1587,
6:uu1588,
6:uu1589,
6:uu1590,
6:uu1591,
6:uu1592,
6:uu1593,
6:uu1594,
6:uu1595,
6:uu1596,
6:uu1597,
6:uu1598,
6:uu1599,
6:uu1600,
6:uu1601,
6:uu1602,
6:uu1603,
6:uu1604,
6:uu1605,
6:uu1606,
6:uu1607,
6:uu1608,
6:uu1609,
6:uu1610,
6:uu1611,
6:uu1612,
6:uu1613,
6:uu1614,
6:uu1615,
6:uu1616,
6:uu1617,
6:uu1618,
6:uu1619,
6:uu1620,
6:uu1621,
6:uu1622,
6:uu1623,
6:uu1624,
6:uu1625,
6:uu1626,
6:uu1627,
6:uu1628,
6:uu1629,
6:uu1630,
6:uu1631,
6:uu1632,
6:uu1633,
6:uu1634,
6:uu1635,
6:uu1636,
6:uu1637,
6:uu1638,
6:uu1639,
6:uu1640,
6:uu1641,
6:uu1642,
6:uu1643,
6:uu1644,
6:uu1645,
6:uu1646,
6:uu1647,
6:uu1648,
6:uu1649,
6:uu1650,
6:uu1651,
6:uu1652,
6:uu1653,
6:uu1654,
6:uu1655,
6:uu1656,
6:uu1657,
6:uu1658,
6:uu1659,
6:uu1660,
6:uu1661,
6:uu1662,
6:uu1663,
6:uu1664,
6:uu1665,
6:uu1666,
6:uu1667,
6:uu1668,
6:uu1669,
6:uu1670,
6:uu1671,
6:uu1672,
6:uu1673,
6:uu1674,
6:uu1675,
6:uu1676,
6:uu1677,
6:uu1678,
6:uu1679,
6:uu1680,
6:uu1681,
6:uu1682,
6:uu1683,
6:uu1684,
6:uu1685,
6:uu1686,
6:uu1687,
6:uu1688,
6:uu1689,
6:uu1690,
6:uu1691,
6:uu1692,
6:uu1693,
6:uu1694,
6:uu1695,
6:uu1696,
6:uu1697,
6:uu1698,
6:uu1699,
6:uu1700,
6:uu1701,
6:uu1702,
6:uu1703,
6:uu1704,
6:uu1705,
6:uu1706,
6:uu1707,
6:uu1708,
6:uu1709,
6:uu1710,
6:uu1711,
6:uu1712,
6:uu1713,
6:uu1714,
6:uu1715,
6:uu1716,
6:uu1717,
6:uu1718,
6:uu1719,
6:uu1720,
6:uu1721,
6:uu1722,
6:uu1723,
6:uu1724,
6:uu1725,
6:uu1726,
6:uu1727,
6:uu1728,
6:uu1729,
6:uu1730,
6:uu1731,
6:uu1732,
6:uu1733,
6:uu1734,
6:uu1735,
6:uu1736,
6:uu1737,
6:uu1738,
6:uu1739,
6:uu1740,
6:uu1741,
6:uu1742,
6:uu1743,
6:uu1744,
6:uu1745,
6:uu1746,
6:uu1747,
6:uu1748,
6:uu1749,
6:uu1750,
6:uu1751,
6:uu1752,
6:uu1753,
6:uu1754,
6:uu1755,
6:uu1756,
6:uu1757,
6:uu1758,
6:uu1759,
6:uu1760,
6:uu1761,
6:uu1762,
6:uu1763,
6:uu1764,
6:uu1765,
6:uu1766,
6:uu1767,
6:uu1768,
6:uu1769,
6:uu1770,
6:uu1771,
6:uu1772,
6:uu1773,
6:uu1774,
6:uu1775,
6:uu1776,
6:uu1777,
6:uu1778,
6:uu1779,
6:uu1780,
6:uu1781,
6:uu1782,
6:uu1783,
6:uu1784,
6:uu1785,
6:uu1786,
6:uu1787,
6:uu1788,
6:uu1789,
6:uu1790,
6:uu1791,
6:uu1792,
6:uu1793,
6:uu1794,
6:uu1795,
6:uu1796,
6:uu1797,
6:uu1798,
6:uu1799,
6:uu1800,
6:uu1801,
6:uu1802,
6:uu1803,
6:uu1804,
6:uu1805,
6:uu1806,
6:uu1807,
6:uu1808,
6:uu1809,
6:uu1810,
6:uu1811,
6:uu1812,
6:uu1813,
6:uu1814,
6:uu1815,
6:uu1816,
6:uu1817,
6:uu1818,
6:uu1819,
6:uu1820,
6:uu1821,
6:uu1822,
6:uu1823,
6:uu1824,
6:uu1825,
6:uu1826,
6:uu1827,
6:uu1828,
6:uu1829,
6:uu1830,
6:uu1831,
6:uu1832,
6:uu1833,
6:uu1834,
6:uu1835,
6:uu1836,
6:uu1837,
6:uu1838,
6:uu1839,
6:uu1840,
6:uu1841,
6:uu1842,
6:uu1843,
6:uu1844,
6:uu1845,
6:uu1846,
6:uu1847,
6:uu1848,
6:uu1849,
6:uu1850,
6:uu1851,
6:uu1852,
6:uu1853,
6:uu1854,
6:uu1855,
6:uu1856,
6:uu1857,
6:uu1858,
6:uu1859,
6:uu1860,
6:uu1861,
6:uu1862,
6:uu1863,
6:uu1864,
6:uu1865,
6:uu1866,
6:uu1867,
6:uu1868,
6:uu1869,
6:uu1870,
6:uu1871,
6:uu1872,
6:uu1873,
6:uu1874,
6:uu1875,
6:uu1876,
6:uu1877,
6:uu1878,
6:uu1879,
6:uu1880,
6:uu1881,
6:uu1882,
6:uu1883,
6:uu1884,
6:uu1885,
6:uu1886,
6:uu1887,
6:uu1888,
6:uu1889,
6:uu1890,
6:uu1891,
6:uu1892,
6:uu1893,
6:uu1894,
6:uu1895,
6:uu1896,
6:uu1897,
6:uu1898,
6:uu1899,
6:uu1900,
6:uu1901,
6:uu1902,
6:uu1903,
6:uu1904,
6:uu1905,
6:uu1906,
6:uu1907,
6:uu1908,
6:uu1909,
6:uu1910,
6:uu1911,
6:uu1912,
6:uu1913,
6:uu1914,
6:uu1915,
6:uu1916,
6:uu1917,
6:uu1918,
6:uu1919,
6:uu1920,
6:uu1921,
6:uu1922,
6:uu1923,
6:uu1924,
6:uu1925,
6:uu1926,
6:uu1927,
6:uu1928,
6:uu1929,
6:uu1930,
6:uu1931,
6:uu1932,
6:uu1933,
6:uu1934,
6:uu1935,
6:uu1936,
6:uu1937,
6:uu1938,
6:uu1939,
6:uu1940,
6:uu1941,
6:uu1942,
6:uu1943,
6:uu1944,
6:uu1945,
6:uu1946,
6:uu1947,
6:uu1948,
6:uu1949,
6:uu1950,
6:uu1951,
6:uu1952,
6:uu1953,
6:uu1954,
6:uu1955,
6:uu1956,
6:uu1957,
6:uu1958,
6:uu1959,
6:uu1960,
6:uu1961,
6:uu1962,
6:uu1963,
6:uu1964,
6:uu1965,
6:uu1966,
6:uu1967,
6:uu1968,
6:uu1969,
6:uu1970,
6:uu1971,
6:uu1972,
6:uu1973,
6:uu1974,
6:uu1975,
6:uu1976,
6:uu1977,
6:uu1978,
6:uu1979,
6:uu1980,
6:uu1981,
6:uu1982,
6:uu1983,
6:uu1984,
6:uu1985,
6:uu1986,
6:uu1987,
6:uu1988,
6:uu1989,
6:uu1990,
6:uu1991,
6:uu1992,
6:uu1993,
6:uu1994,
6:uu1995,
6:uu1996,
6:uu1997,
6:uu1998,
6:uu1999,
6:uu2000,
6:uu2001,
6:uu2002,
6:uu2003,
6:uu2004,
6:uu2005,
6:uu2006,
6:uu2007,
6:uu2008,
6:uu2009,
6:uu2010,
6:uu2011,
6:uu2012,
6:uu2013,
6:uu2014,
6:uu2015,
6:uu2016,
6:uu2017,
6:uu2018,
6:uu2019,
6:uu2020,
6:uu2021,
6:uu2022,
6:uu2023,
6:uu2024,
6:uu2025,
6:uu2026,
6:uu2027,
6:uu2028,
6:uu2029,
6:uu2030,
6:uu2031,
6:uu2032,
6:uu2033,
6:uu2034,
6:uu2035,
6:uu2036,
6:uu2037,
6:uu2038,
6:uu2039,
6:uu2040,
6:uu2041,
6:uu2042,
6:uu2043,
6:uu2044,
6:uu2045,
6:uu2046,
6:uu2047,
6:uu2048,
6:uu2049,
6:uu2050,
6:uu2051,
6:uu2052,
6:uu2053,
6:uu2054,
6:uu2055,
6:uu2056,
6:uu2057,
6:uu2058,
6:uu2059,
6:uu2060,
6:uu2061,
6:uu2062,
6:uu2063,
6:uu2064,
6:uu2065,
6:uu2066,
6:uu2067,
6:uu2068,
6:uu2069,
6:uu2070,
6:uu2071,
6:uu2072,
6:uu2073,
6:uu2074,
6:uu2075,
6:uu2076,
6:uu2077,
6:uu2078,
6:uu2079,
6:uu2080,
6:uu2081,
6:uu2082,
6:uu2083,
6:uu2084,
6:uu2085,
6:uu2086,
6:uu2087,
6:uu2088,
6:uu2089,
6:uu2090,
6:uu2091,
6:uu2092,
6:uu2093,
6:uu2094,
6:uu2095,
6:uu2096,
6:uu2097,
6:uu2098,
6:uu2099,
6:uu2100,
6:uu2101,
6:uu2102,
6:uu2103,
6:uu2104,
6:uu2105,
6:uu2106,
6:uu2107,
6:uu2108,
6:uu2109,
6:uu2110,
6:uu2111,
6:uu2112,
6:uu2113,
6:uu2114,
6:uu2115,
6:uu2116,
6:uu2117,
6:uu2118,
6:uu2119,
6:uu2120,
6:uu2121,
6:uu2122,
6:uu2123,
6:uu2124,
6:uu2125,
6:uu2126,
6:uu2127,
6:uu2128,
6:uu2129,
6:uu2130,
6:uu2131,
6:uu2132,
6:uu2133,
6:uu2134,
6:uu2135,
6:uu2136,
6:uu2137,
6:uu2138,
6:uu2139,
6:uu2140,
6:uu2141,
6:uu2142,
6:uu2143,
6:uu2144,
6:uu2145,
6:uu2146,
6:uu2147,
6:uu2148,
6:uu2149,
6:uu2150,
6:uu2151,
6:uu2152,
6:uu2153,
6:uu2154,
6:uu2155,
6:uu2156,
6:uu2157,
6:uu2158,
6:uu2159,
6:uu2160,
6:uu2161,
6:uu2162,
6:uu2163,
6:uu2164,
6:uu2165,
6:uu2166,
6:uu2167,
6:uu2168,
6:uu2169,
6:uu2170,
6:uu2171,
6:uu2172,
6:uu2173,
6:uu2174,
6:uu2175,
6:uu2176,
6:uu2177,
6:uu2178,
6:uu2179,
6:uu2180,
6:uu2181,
6:uu2182,
6:uu2183,
6:uu2184,
6:uu2185,
6:uu2186,
6:uu2187,
6:uu2188,
6:uu2189,
6:uu2190,
6:uu2191,
6:uu2192,
6:uu2193,
6:uu2194,
6:uu2195,
6:uu2196,
6:uu2197,
6:uu2198,
6:uu2199,
6:uu2200,
6:uu2201,
6:uu2202,
6:uu2203,
6:uu2204,
6:uu2205,
6:uu2206,
6:uu2207,
6:uu2208,
6:uu2209,
6:uu2210,
6:uu2211,
6:uu2212,
6:uu2213,
6:uu2214,
6:uu2215,
6:uu2216,
6:uu2217,
6:uu2218,
6:uu2219,
6:uu2220,
6:uu2221,
6:uu2222,
6:uu2223,
6:uu2224,
6:uu2225,
6:uu2226,
6:uu2227,
6:uu2228,
6:uu2229,
6:uu2230,
6:uu2231,
6:uu2232,
6:uu2233,
6:uu2234,
6:uu2235,
6:uu2236,
6:uu2237,
6:uu2238,
6:uu2239,
6:uu2240,
6:uu2241,
6:uu2242,
6:uu2243,
6:uu2244,
6:uu2245,
6:uu2246,
6:uu2247,
6:uu2248,
6:uu2249,
6:uu2250,
6:uu2251,
6:uu2252,
6:uu2253,
6:uu2254,
6:uu2255,
6:uu2256,
6:uu2257,
6:uu2258,
6:uu2259,
6:uu2260,
6:uu2261,
6:uu2262,
6:uu2263,
6:uu2264,
6:uu2265,
6:uu2266,
6:uu2267,
6:uu2268,
6:uu2269,
6:uu2270,
6:uu2271,
6:uu2272,
6:uu2273,
6:uu2274,
6:uu2275,
6:uu2276,
6:uu2277,
6:uu2278,
6:uu2279,
6:uu2280,
6:uu2281,
6:uu2282,
6:uu2283,
6:uu2284,
6:uu2285,
6:uu2286,
6:uu2287,
6:uu2288,
6:uu2289,
6:uu2290,
6:uu2291,
6:uu2292,
6:uu2293,
6:uu2294,
6:uu2295,
6:uu2296,
6:uu2297,
6:uu2298,
6:uu2299,
6:uu2300,
6:uu2301,
6:uu2302,
6:uu2303,
6:uu2304,
6:uu2305,
6:uu2306,
6:uu2307,
6:uu2308,
6:uu2309,
6:uu2310,
6:uu2311,
6:uu2312,
6:uu2313,
6:uu2314,
6:uu2315,
6:uu2316,
6:uu2317,
6:uu2318,
6:uu2319,
6:uu2320,
6:uu2321,
6:uu2322,
6:uu2323,
6:uu2324,
6:uu2325,
6:uu2326,
6:uu2327,
6:uu2328,
6:uu2329,
6:uu2330,
6:uu2331,
6:uu2332,
6:uu2333,
6:uu2334,
6:uu2335,
6:uu2336,
6:uu2337,
6:uu2338,
6:uu2339,
6:uu2340,
6:uu2341,
6:uu2342,
6:uu2343,
6:uu2344,
6:uu2345,
6:uu2346,
6:uu2347,
6:uu2348,
6:uu2349,
6:uu2350,
6:uu2351,
6:uu2352,
6:uu2353,
6:uu2354,
6:uu2355,
6:uu2356,
6:uu2357,
6:uu2358,
6:uu2359,
6:uu2360,
6:uu2361,
6:uu2362,
6:uu2363,
6:uu2364,
6:uu2365,
6:uu2366,
6:uu2367,
6:uu2368,
6:uu2369,
6:uu2370,
6:uu2371,
6:uu2372,
6:uu2373,
6:uu2374,
6:uu2375,
6:uu2376,
6:uu2377,
6:uu2378,
6:uu2379,
6:uu2380,
6:uu2381,
6:uu2382,
6:uu2383,
6:uu2384,
6:uu2385,
6:uu2386,
6:uu2387,
6:uu2388,
6:uu2389,
6:uu2390,
6:uu2391,
6:uu2392,
6:uu2393,
6:uu2394,
6:uu2395,
6:uu2396,
6:uu2397,
6:uu2398,
6:uu2399,
6:uu2400,
6:uu2401,
6:uu2402,
6:uu2403,
6:uu2404,
6:uu2405,
6:uu2406,
6:uu2407,
6:uu2408,
6:uu2409,
6:uu2410,
6:uu2411,
6:uu2412,
6:uu2413,
6:uu2414,
6:uu2415,
6:uu2416,
6:uu2417,
6:uu2418,
6:uu2419,
6:uu2420,
6:uu2421,
6:uu2422,
6:uu2423,
6:uu2424,
6:uu2425,
6:uu2426,
6:uu2427,
6:uu2428,
6:uu2429,
6:uu2430,
6:uu2431,
6:uu2432,
6:uu2433,
6:uu2434,
6:uu2435,
6:uu2436,
6:uu2437,
6:uu2438,
6:uu2439,
6:uu2440,
6:uu2441,
6:uu2442,
6:uu2443,
6:uu2444,
6:uu2445,
6:uu2446,
6:uu2447,
6:uu2448,
6:uu2449,
6:uu2450,
6:uu2451,
6:uu2452,
6:uu2453,
6:uu2454,
6:uu2455,
6:uu2456,
6:uu2457,
6:uu2458,
6:uu2459,
6:uu2460,
6:uu2461,
6:uu2462,
6:uu2463,
6:uu2464,
6:uu2465,
6:uu2466,
6:uu2467,
6:uu2468,
6:uu2469,
6:uu2470,
6:uu2471,
6:uu2472,
6:uu2473,
6:uu2474,
6:uu2475,
6:uu2476,
6:uu2477,
6:uu2478,
6:uu2479,
6:uu2480,
6:uu2481,
6:uu2482,
6:uu2483,
6:uu2484,
6:uu2485,
6:uu2486,
6:uu2487,
6:uu2488,
6:uu2489,
6:uu2490,
6:uu2491,
6:uu2492,
6:uu2493,
6:uu2494,
6:uu2495,
6:uu2496,
6:uu2497,
6:uu2498,
6:uu2499,
6:uu2500,
6:uu2501,
6:uu2502,
6:uu2503,
6:uu2504,
6:uu2505,
6:uu2506,
6:uu2507,
6:uu2508,
6:uu2509,
6:uu2510,
6:uu2511,
6:uu2512,
6:uu2513,
6:uu2514,
6:uu2515,
6:uu2516,
6:uu2517,
6:uu2518,
6:uu2519,
6:uu2520,
6:uu2521,
6:uu2522,
6:uu2523,
6:uu2524,
6:uu2525,
6:uu2526,
6:uu2527,
6:uu2528,
6:uu2529,
6:uu2530,
6:uu2531,
6:uu2532,
6:uu2533,
6:uu2534,
6:uu2535,
6:uu2536,
6:uu2537,
6:uu2538,
6:uu2539,
6:uu2540,
6:uu2541,
6:uu2542,
6:uu2543,
6:uu2544,
6:uu2545,
6:uu2546,
6:uu2547,
6:uu2548,
6:uu2549,
6:uu2550,
6:uu2551,
6:uu2552,
6:uu2553,
6:uu2554,
6:uu2555,
6:uu2556,
6:uu2557,
6:uu2558,
6:uu2559,
6:uu2560,
6:uu2561,
6:uu2562,
6:uu2563,
6:uu2564,
6:uu2565,
6:uu2566,
6:uu2567,
6:uu2568,
6:uu2569,
6:uu2570,
6:uu2571,
6:uu2572,
6:uu2573,
6:uu2574,
6:uu2575,
6:uu2576,
6:uu2577,
6:uu2578,
6:uu2579,
6:uu2580,
6:uu2581,
6:uu2582,
6:uu2583,
6:uu2584,
6:uu2585,
6:uu2586,
6:uu2587,
6:uu2588,
6:uu2589,
6:uu2590,
6:uu2591,
6:uu2592,
6:uu2593,
6:uu2594,
6:uu2595,
6:uu2596,
6:uu2597,
6:uu2598,
6:uu2599,
6:uu2600,
6:uu2601,
6:uu2602,
6:uu2603,
6:uu2604,
6:uu2605,
6:uu2606,
6:uu2607,
6:uu2608,
6:uu2609,
6:uu2610,
6:uu2611,
6:uu2612,
6:uu2613,
6:uu2614,
6:uu2615,
6:uu2616,
6:uu2617,
6:uu2618,
6:uu2619,
6:uu2620,
6:uu2621,
6:uu2622,
6:uu2623,
6:uu2624,
6:uu2625,
6:uu2626,
6:uu2627,
6:uu2628,
6:uu2629,
6:uu2630,
6:uu2631,
6:uu2632,
6:uu2633,
6:uu2634,
6:uu2635,
6:uu2636,
6:uu2637,
6:uu2638,
6:uu2639,
6:uu2640,
6:uu2641,
6:uu2642,
6:uu2643,
6:uu2644,
6:uu2645,
6:uu2646,
6:uu2647,
6:uu2648,
6:uu2649,
6:uu2650,
6:uu2651,
6:uu2652,
6:uu2653,
6:uu2654,
6:uu2655,
6:uu2656,
6:uu2657,
6:uu2658,
6:uu2659,
6:uu2660,
6:uu2661,
6:uu2662,
6:uu2663,
6:uu2664,
6:uu2665,
6:uu2666,
6:uu2667,
6:uu2668,
6:uu2669,
6:uu2670,
6:uu2671,
6:uu2672,
6:uu2673,
6:uu2674,
6:uu2675,
6:uu2676,
6:uu2677,
6:uu2678,
6:uu2679,
6:uu2680,
6:uu2681,
6:uu2682,
6:uu2683,
6:uu2684,
6:uu2685,
6:uu2686,
6:uu2687,
6:uu2688,
6:uu2689,
6:uu2690,
6:uu2691,
6:uu2692,
6:uu2693,
6:uu2694,
6:uu2695,
6:uu2696,
6:uu2697,
6:uu2698,
6:uu2699,
6:uu2700,
6:uu2701,
6:uu2702,
6:uu2703,
6:uu2704,
6:uu2705,
6:uu2706,
6:uu2707,
6:uu2708,
6:uu2709,
6:uu2710,
6:uu2711,
6:uu2712,
6:uu2713,
6:uu2714,
6:uu2715,
6:uu2716,
6:uu2717,
6:uu2718,
6:uu2719,
6:uu2720,
6:uu2721,
6:uu2722,
6:uu2723,
6:uu2724,
6:uu2725,
6:uu2726,
6:uu2727,
6:uu2728,
6:uu2729,
6:uu2730,
6:uu2731,
6:uu2732,
6:uu2733,
6:uu2734,
6:uu2735,
6:uu2736,
6:uu2737,
6:uu2738,
6:uu2739,
6:uu2740,
6:uu2741,
6:uu2742,
6:uu2743,
6:uu2744,
6:uu2745,
6:uu2746,
6:uu2747,
6:uu2748,
6:uu2749,
6:uu2750,
6:uu2751,
6:uu2752,
6:uu2753,
6:uu2754,
6:uu2755,
6:uu2756,
6:uu2757,
6:uu2758,
6:uu2759,
6:uu2760,
6:uu2761,
6:uu2762,
6:uu2763,
6:uu2764,
6:uu2765,
6:uu2766,
6:uu2767,
6:uu2768,
6:uu2769,
6:uu2770,
6:uu2771,
6:uu2772,
6:uu2773,
6:uu2774,
6:uu2775,
6:uu2776,
6:uu2777,
6:uu2778,
6:uu2779,
6:uu2780,
6:uu2781,
6:uu2782,
6:uu2783,
6:uu2784,
6:uu2785,
6:uu2786,
6:uu2787,
6:uu2788,
6:uu2789,
6:uu2790,
6:uu2791,
6:uu2792,
6:uu2793,
6:uu2794,
6:uu2795,
6:uu2796,
6:uu2797,
6:uu2798,
6:uu2799,
6:uu2800,
6:uu2801,
6:uu2802,
6:uu2803,
6:uu2804,
6:uu2805,
6:uu2806,
6:uu2807,
6:uu2808,
6:uu2809,
6:uu2810,
6:uu2811,
6:uu2812,
6:uu2813,
6:uu2814,
6:uu2815,
6:uu2816,
6:uu2817,
6:uu2818,
6:uu2819,
6:uu2820,
6:uu2821,
6:uu2822,
6:uu2823,
6:uu2824,
6:uu2825,
6:uu2826,
6:uu2827,
6:uu2828,
6:uu2829,
6:uu2830,
6:uu2831,
6:uu2832,
6:uu2833,
6:uu2834,
6:uu2835,
6:uu2836,
6:uu2837,
6:uu2838,
6:uu2839,
6:uu2840,
6:uu2841,
6:uu2842,
6:uu2843,
6:uu2844,
6:uu2845,
6:uu2846,
6:uu2847,
6:uu2848,
6:uu2849,
6:uu2850,
6:uu2851,
6:uu2852,
6:uu2853,
6:uu2854,
6:uu2855,
6:uu2856,
6:uu2857,
6:uu2858,
6:uu2859,
6:uu2860,
6:uu2861,
6:uu2862,
6:uu2863,
6:uu2864,
6:uu2865,
6:uu2866,
6:uu2867,
6:uu2868,
6:uu2869,
6:uu2870,
6:uu2871,
6:uu2872,
6:uu2873,
6:uu2874,
6:uu2875,
6:uu2876,
6:uu2877,
6:uu2878,
6:uu2879,
6:uu2880,
6:uu2881,
6:uu2882,
6:uu2883,
6:uu2884,
6:uu2885,
6:uu2886,
6:uu2887,
6:uu2888,
6:uu2889,
6:uu2890,
6:uu2891,
6:uu2892,
6:uu2893,
6:uu2894,
6:uu2895,
6:uu2896,
6:uu2897,
6:uu2898,
6:uu2899,
6:uu2900,
6:uu2901,
6:uu2902,
6:uu2903,
6:uu2904,
6:uu2905,
6:uu2906,
6:uu2907,
6:uu2908,
6:uu2909,
6:uu2910,
6:uu2911,
6:uu2912,
6:uu2913,
6:uu2914,
6:uu2915,
6:uu2916,
6:uu2917,
6:uu2918,
6:uu2919,
6:uu2920,
6:uu2921,
6:uu2922,
6:uu2923,
6:uu2924,
6:uu2925,
6:uu2926,
6:uu2927,
6:uu2928,
6:uu2929,
6:uu2930,
6:uu2931,
6:uu2932,
6:uu2933,
6:uu2934,
6:uu2935,
6:uu2936,
6:uu2937,
6:uu2938,
6:uu2939,
6:uu2940,
6:uu2941,
6:uu2942,
6:uu2943,
6:uu2944,
6:uu2945,
6:uu2946,
6:uu2947,
6:uu2948,
6:uu2949,
6:uu2950,
6:uu2951,
6:uu2952,
6:uu2953,
6:uu2954,
6:uu2955,
6:uu2956,
6:uu2957,
6:uu2958,
6:uu2959,
6:uu2960,
6:uu2961,
6:uu2962,
6:uu2963,
6:uu2964,
6:uu2965,
6:uu2966,
6:uu2967,
6:uu2968,
6:uu2969,
6:uu2970,
6:uu2971,
6:uu2972,
6:uu2973,
6:uu2974,
6:uu2975,
6:uu2976,
6:uu2977,
6:uu2978,
6:uu2979,
6:uu2980,
6:uu2981,
6:uu2982,
6:uu2983,
6:uu2984,
6:uu2985,
6:uu2986,
6:uu2987,
6:uu2988,
6:uu2989,
6:uu2990,
6:uu2991,
6:uu2992,
6:uu2993,
6:uu2994,
6:uu2995,
6:uu2996,
6:uu2997,
6:uu2998,
6:uu2999,
6:uu3000,
6:uu3001,
6:uu3002,
6:uu3003,
6:uu3004,
6:uu3005,
6:uu3006,
6:uu3007,
6:uu3008,
6:uu3009,
6:uu3010,
6:uu3011,
6:uu3012,
6:uu3013,
6:uu3014,
6:uu3015,
6:uu3016,
6:uu3017,
6:uu3018,
6:uu3019,
6:uu3020,
6:uu3021,
6:uu3022,
6:uu3023,
6:uu3024,
6:uu3025,
6:uu3026,
6:uu3027,
6:uu3028,
6:uu3029,
6:uu3030,
6:uu3031,
6:uu3032,
6:uu3033,
6:uu3034,
6:uu3035,
6:uu3036,
6:uu3037,
6:uu3038,
6:uu3039,
6:uu3040,
6:uu3041,
6:uu3042,
6:uu3043,
6:uu3044,
6:uu3045,
6:uu3046,
6:uu3047,
6:uu3048,
6:uu3049,
6:uu3050,
6:uu3051,
6:uu3052,
6:uu3053,
6:uu3054,
6:uu3055,
6:uu3056,
6:uu3057,
6:uu3058,
6:uu3059,
6:uu3060,
6:uu3061,
6:uu3062,
6:uu3063,
6:uu3064,
6:uu3065,
6:uu3066,
6:uu3067,
6:uu3068,
6:uu3069,
6:uu3070,
6:uu3071,
6:uu3072,
6:uu3073,
6:uu3074,
6:uu3075,
6:uu3076,
6:uu3077,
6:uu3078,
6:uu3079,
6:uu3080,
6:uu3081,
6:uu3082,
6:uu3083,
6:uu3084,
6:uu3085,
6:uu3086,
6:uu3087,
6:uu3088,
6:uu3089,
6:uu3090,
6:uu3091,
6:uu3092,
6:uu3093,
6:uu3094,
6:uu3095,
6:uu3096,
6:uu3097,
6:uu3098,
6:uu3099,
6:uu3100,
6:uu3101,
6:uu3102,
6:uu3103,
6:uu3104,
6:uu3105,
6:uu3106,
6:uu3107,
6:uu3108,
6:uu3109,
6:uu3110,
6:uu3111,
6:uu3112,
6:uu3113,
6:uu3114,
6:uu3115,
6:uu3116,
6:uu3117,
6:uu3118,
6:uu3119,
6:uu3120,
6:uu3121,
6:uu3122,
6:uu3123,
6:uu3124,
6:uu3125,
6:uu3126,
6:uu3127,
6:uu3128,
6:uu3129,
6:uu3130,
6:uu3131,
6:uu3132,
6:uu3133,
6:uu3134,
6:uu3135,
6:uu3136,
6:uu3137,
6:uu3138,
6:uu3139,
6:uu3140,
6:uu3141,
6:uu3142,
6:uu3143,
6:uu3144,
6:uu3145,
6:uu3146,
6:uu3147,
6:uu3148,
6:uu3149,
6:uu3150,
6:uu3151,
6:uu3152,
6:uu3153,
6:uu3154,
6:uu3155,
6:uu3156,
6:uu3157,
6:uu3158,
6:uu3159,
6:uu3160,
6:uu3161,
6:uu3162,
6:uu3163,
6:uu3164,
6:uu3165,
6:uu3166,
6:uu3167,
6:uu3168,
6:uu3169,
6:uu3170,
6:uu3171,
6:uu3172,
6:uu3173,
6:uu3174,
6:uu3175,
6:uu3176,
6:uu3177,
6:uu3178,
6:uu3179,
6:uu3180,
6:uu3181,
6:uu3182,
6:uu3183,
6:uu3184,
6:uu3185,
6:uu3186,
6:uu3187,
6:uu3188,
6:uu3189,
6:uu3190,
6:uu3191,
6:uu3192,
6:uu3193,
6:uu3194,
6:uu3195,
6:uu3196,
6:uu3197,
6:uu3198,
6:uu3199,
6:uu3200,
6:uu3201,
6:uu3202,
6:uu3203,
6:uu3204,
6:uu3205,
6:uu3206,
6:uu3207,
6:uu3208,
6:uu3209,
6:uu3210,
6:uu3211,
6:uu3212,
6:uu3213,
6:uu3214,
6:uu3215,
6:uu3216,
6:uu3217,
6:uu3218,
6:uu3219,
6:uu3220,
6:uu3221,
6:uu3222,
6:uu3223,
6:uu3224,
6:uu3225,
6:uu3226,
6:uu3227,
6:uu3228,
6:uu3229,
6:uu3230,
6:uu3231,
6:uu3232,
6:uu3233,
6:uu3234,
6:uu3235,
6:uu3236,
6:uu3237,
6:uu3238,
6:uu3239,
6:uu3240,
6:uu3241,
6:uu3242,
6:uu3243,
6:uu3244,
6:uu3245,
6:uu3246,
6:uu3247,
6:uu3248,
6:uu3249,
6:uu3250,
6:uu3251,
6:uu3252,
6:uu3253,
6:uu3254,
6:uu3255,
6:uu3256,
6:uu3257,
6:uu3258,
6:uu3259,
6:uu3260,
6:uu3261,
6:uu3262,
6:uu3263,
6:uu3264,
6:uu3265,
6:uu3266,
6:uu3267,
6:uu3268,
6:uu3269,
6:uu3270,
6:uu3271,
6:uu3272,
6:uu3273,
6:uu3274,
6:uu3275,
6:uu3276,
6:uu3277,
6:uu3278,
6:uu3279,
6:uu3280,
6:uu3281,
6:uu3282,
6:uu3283,
6:uu3284,
6:uu3285,
6:uu3286,
6:uu3287,
6:uu3288,
6:uu3289,
6:uu3290,
6:uu3291,
6:uu3292,
6:uu3293,
6:uu3294,
6:uu3295,
6:uu3296,
6:uu3297,
6:uu3298,
6:uu3299,
6:uu3300,
6:uu3301,
6:uu3302,
6:uu3303,
6:uu3304,
6:uu3305,
6:uu3306,
6:uu3307,
6:uu3308,
6:uu3309,
6:uu3310,
6:uu3311,
6:uu3312,
6:uu3313,
6:uu3314,
6:uu3315,
6:uu3316,
6:uu3317,
6:uu3318,
6:uu3319,
6:uu3320,
6:uu3321,
6:uu3322,
6:uu3323,
6:uu3324,
6:uu3325,
6:uu3326,
6:uu3327,
6:uu3328,
6:uu3329,
6:uu3330,
6:uu3331,
6:uu3332,
6:uu3333,
6:uu3334,
6:uu3335,
6:uu3336,
6:uu3337,
6:uu3338,
6:uu3339,
6:uu3340,
6:uu3341,
6:uu3342,
6:uu3343,
6:uu3344,
6:uu3345,
6:uu3346,
6:uu3347,
6:uu3348,
6:uu3349,
6:uu3350,
6:uu3351,
6:uu3352,
6:uu3353,
6:uu3354,
6:uu3355,
6:uu3356,
6:uu3357,
6:uu3358,
6:uu3359,
6:uu3360,
6:uu3361,
6:uu3362,
6:uu3363,
6:uu3364,
6:uu3365,
6:uu3366,
6:uu3367,
6:uu3368,
6:uu3369,
6:uu3370,
6:uu3371,
6:uu3372,
6:uu3373,
6:uu3374,
6:uu3375,
6:uu3376,
6:uu3377,
6:uu3378,
6:uu3379,
6:uu3380,
6:uu3381,
6:uu3382,
6:uu3383,
6:uu3384,
6:uu3385,
6:uu3386,
6:uu3387,
6:uu3388,
6:uu3389,
6:uu3390,
6:uu3391,
6:uu3392,
6:uu3393,
6:uu3394,
6:uu3395,
6:uu3396,
6:uu3397,
6:uu3398,
6:uu3399,
6:uu3400,
6:uu3401,
6:uu3402,
6:uu3403,
6:uu3404,
6:uu3405,
6:uu3406,
6:uu3407,
6:uu3408,
6:uu3409,
6:uu3410,
6:uu3411,
6:uu3412,
6:uu3413,
6:uu3414,
6:uu3415,
6:uu3416,
6:uu3417,
6:uu3418,
6:uu3419,
6:uu3420,
6:uu3421,
6:uu3422,
6:uu3423,
6:uu3424,
6:uu3425,
6:uu3426,
6:uu3427,
6:uu3428,
6:uu3429,
6:uu3430,
6:uu3431,
6:uu3432,
6:uu3433,
6:uu3434,
6:uu3435,
6:uu3436,
6:uu3437,
6:uu3438,
6:uu3439,
6:uu3440,
6:uu3441,
6:uu3442,
6:uu3443,
6:uu3444,
6:uu3445,
6:uu3446,
6:uu3447,
6:uu3448,
6:uu3449,
6:uu3450,
6:uu3451,
6:uu3452,
6:uu3453,
6:uu3454,
6:uu3455,
6:uu3456,
6:uu3457,
6:uu3458,
6:uu3459,
6:uu3460,
6:uu3461,
6:uu3462,
6:uu3463,
6:uu3464,
6:uu3465,
6:uu3466,
6:uu3467,
6:uu3468,
6:uu3469,
6:uu3470,
6:uu3471,
6:uu3472,
6:uu3473,
6:uu3474,
6:uu3475,
6:uu3476,
6:uu3477,
6:uu3478,
6:uu3479,
6:uu3480,
6:uu3481,
6:uu3482,
6:uu3483,
6:uu3484,
6:uu3485,
6:uu3486,
6:uu3487,
6:uu3488,
6:uu3489,
6:uu3490,
6:uu3491,
6:uu3492,
6:uu3493,
6:uu3494,
6:uu3495,
6:uu3496,
6:uu3497,
6:uu3498,
6:uu3499,
6:uu3500,
6:uu3501,
6:uu3502,
6:uu3503,
6:uu3504,
6:uu3505,
6:uu3506,
6:uu3507,
6:uu3508,
6:uu3509,
6:uu3510,
6:uu3511,
6:uu3512,
6:uu3513,
6:uu3514,
6:uu3515,
6:uu3516,
6:uu3517,
6:uu3518,
6:uu3519,
6:uu3520,
6:uu3521,
6:uu3522,
6:uu3523,
6:uu3524,
6:uu3525,
6:uu3526,
6:uu3527,
6:uu3528,
6:uu3529,
6:uu3530,
6:uu3531,
6:uu3532,
6:uu3533,
6:uu3534,
6:uu3535,
6:uu3536,
6:uu3537,
6:uu3538,
6:uu3539,
6:uu3540,
6:uu3541,
6:uu3542,
6:uu3543,
6:uu3544,
6:uu3545,
6:uu3546,
6:uu3547,
6:uu3548,
6:uu3549,
6:uu3550,
6:uu3551,
6:uu3552,
6:uu3553,
6:uu3554,
6:uu3555,
6:uu3556,
6:uu3557,
6:uu3558,
6:uu3559,
6:uu3560,
6:uu3561,
6:uu3562,
6:uu3563,
6:uu3564,
6:uu3565,
6:uu3566,
6:uu3567,
6:uu3568,
6:uu3569,
6:uu3570,
6:uu3571,
6:uu3572,
6:uu3573,
6:uu3574,
6:uu3575,
6:uu3576,
6:uu3577,
6:uu3578,
6:uu3579,
6:uu3580,
6:uu3581,
6:uu3582,
6:uu3583,
6:uu3584,
6:uu3585,
6:uu3586,
6:uu3587,
6:uu3588,
6:uu3589,
6:uu3590,
6:uu3591,
6:uu3592,
6:uu3593,
6:uu3594,
6:uu3595,
6:uu3596,
6:uu3597,
6:uu3598,
6:uu3599,
6:uu3600,
6:uu3601,
6:uu3602,
6:uu3603,
6:uu3604,
6:uu3605,
6:uu3606,
6:uu3607,
6:uu3608,
6:uu3609,
6:uu3610,
6:uu3611,
6:uu3612,
6:uu3613,
6:uu3614,
6:uu3615,
6:uu3616,
6:uu3617,
6:uu3618,
6:uu3619,
6:uu3620,
6:uu3621,
6:uu3622,
6:uu3623,
6:uu3624,
6:uu3625,
6:uu3626,
6:uu3627,
6:uu3628,
6:uu3629,
6:uu3630,
6:uu3631,
6:uu3632,
6:uu3633,
6:uu3634,
6:uu3635,
6:uu3636,
6:uu3637,
6:uu3638,
6:uu3639,
6:uu3640,
6:uu3641,
6:uu3642,
6:uu3643,
6:uu3644,
6:uu3645,
6:uu3646,
6:uu3647,
6:uu3648,
6:uu3649,
6:uu3650,
6:uu3651,
6:uu3652,
6:uu3653,
6:uu3654,
6:uu3655,
6:uu3656,
6:uu3657,
6:uu3658,
6:uu3659,
6:uu3660,
6:uu3661,
6:uu3662,
6:uu3663,
6:uu3664,
6:uu3665,
6:uu3666,
6:uu3667,
6:uu3668,
6:uu3669,
6:uu3670,
6:uu3671,
6:uu3672,
6:uu3673,
6:uu3674,
6:uu3675,
6:uu3676,
6:uu3677,
6:uu3678,
6:uu3679,
6:uu3680,
6:uu3681,
6:uu3682,
6:uu3683,
6:uu3684,
6:uu3685,
6:uu3686,
6:uu3687,
6:uu3688,
6:uu3689,
6:uu3690,
6:uu3691,
6:uu3692,
6:uu3693,
6:uu3694,
6:uu3695,
6:uu3696,
6:uu3697,
6:uu3698,
6:uu3699,
6:uu3700,
6:uu3701,
6:uu3702,
6:uu3703,
6:uu3704,
6:uu3705,
6:uu3706,
6:uu3707,
6:uu3708,
6:uu3709,
6:uu3710,
6:uu3711,
6:uu3712,
6:uu3713,
6:uu3714,
6:uu3715,
6:uu3716,
6:uu3717,
6:uu3718,
6:uu3719,
6:uu3720,
6:uu3721,
6:uu3722,
6:uu3723,
6:uu3724,
6:uu3725,
6:uu3726,
6:uu3727,
6:uu3728,
6:uu3729,
6:uu3730,
6:uu3731,
6:uu3732,
6:uu3733,
6:uu3734,
6:uu3735,
6:uu3736,
6:uu3737,
6:uu3738,
6:uu3739,
6:uu3740,
6:uu3741,
6:uu3742,
6:uu3743,
6:uu3744,
6:uu3745,
6:uu3746,
6:uu3747,
6:uu3748,
6:uu3749,
6:uu3750,
6:uu3751,
6:uu3752,
6:uu3753,
6:uu3754,
6:uu3755,
6:uu3756,
6:uu3757,
6:uu3758,
6:uu3759,
6:uu3760,
6:uu3761,
6:uu3762,
6:uu3763,
6:uu3764,
6:uu3765,
6:uu3766,
6:uu3767,
6:uu3768,
6:uu3769,
6:uu3770,
6:uu3771,
6:uu3772,
6:uu3773,
6:uu3774,
6:uu3775,
6:uu3776,
6:uu3777,
6:uu3778,
6:uu3779,
6:uu3780,
6:uu3781,
6:uu3782,
6:uu3783,
6:uu3784,
6:uu3785,
6:uu3786,
6:uu3787,
6:uu3788,
6:uu3789,
6:uu3790,
6:uu3791,
6:uu3792,
6:uu3793,
6:uu3794,
6:uu3795,
6:uu3796,
6:uu3797,
6:uu3798,
6:uu3799,
6:uu3800,
6:uu3801,
6:uu3802,
6:uu3803,
6:uu3804,
6:uu3805,
6:uu3806,
6:uu3807,
6:uu3808,
6:uu3809,
6:uu3810,
6:uu3811,
6:uu3812,
6:uu3813,
6:uu3814,
6:uu3815,
6:uu3816,
6:uu3817,
6:uu3818,
6:uu3819,
6:uu3820,
6:uu3821,
6:uu3822,
6:uu3823,
6:uu3824,
6:uu3825,
6:uu3826,
6:uu3827,
6:uu3828,
6:uu3829,
6:uu3830,
6:uu3831,
6:uu3832,
6:uu3833,
6:uu3834,
6:uu3835,
6:uu3836,
6:uu3837,
6:uu3838,
6:uu3839,
6:uu3840,
6:uu3841,
6:uu3842,
6:uu3843,
6:uu3844,
6:uu3845,
6:uu3846,
6:uu3847,
6:uu3848,
6:uu3849,
6:uu3850,
6:uu3851,
6:uu3852,
6:uu3853,
6:uu3854,
6:uu3855,
6:uu3856,
6:uu3857,
6:uu3858,
6:uu3859,
6:uu3860,
6:uu3861,
6:uu3862,
6:uu3863,
6:uu3864,
6:uu3865,
6:uu3866,
6:uu3867,
6:uu3868,
6:uu3869,
6:uu3870,
6:uu3871,
6:uu3872,
6:uu3873,
6:uu3874,
6:uu3875,
6:uu3876,
6:uu3877,
6:uu3878,
6:uu3879,
6:uu3880,
6:uu3881,
6:uu3882,
6:uu3883,
6:uu3884,
6:uu3885,
6:uu3886,
6:uu3887,
6:uu3888,
6:uu3889,
6:uu3890,
6:uu3891,
6:uu3892,
6:uu3893,
6:uu3894,
6:uu3895,
6:uu3896,
6:uu3897,
6:uu3898,
6:uu3899,
6:uu3900,
6:uu3901,
6:uu3902,
6:uu3903,
6:uu3904,
6:uu3905,
6:uu3906,
6:uu3907,
6:uu3908,
6:uu3909,
6:uu3910,
6:uu3911,
6:uu3912,
6:uu3913,
6:uu3914,
6:uu3915,
6:uu3916,
6:uu3917,
6:uu3918,
6:uu3919,
6:uu3920,
6:uu3921,
6:uu3922,
6:uu3923,
6:uu3924,
6:uu3925,
6:uu3926,
6:uu3927,
6:uu3928,
6:uu3929,
6:uu3930,
6:uu3931,
6:uu3932,
6:uu3933,
6:uu3934,
6:uu3935,
6:uu3936,
6:uu3937,
6:uu3938,
6:uu3939,
6:uu3940,
6:uu3941,
6:uu3942,
6:uu3943,
6:uu3944,
6:uu3945,
6:uu3946,
6:uu3947,
6:uu3948,
6:uu3949,
6:uu3950,
6:uu3951,
6:uu3952,
6:uu3953,
6:uu3954,
6:uu3955,
6:uu3956,
6:uu3957,
6:uu3958,
6:uu3959,
6:uu3960,
6:uu3961,
6:uu3962,
6:uu3963,
6:uu3964,
6:uu3965,
6:uu3966,
6:uu3967,
6:uu3968,
6:uu3969,
6:uu3970,
6:uu3971,
6:uu3972,
6:uu3973,
6:uu3974,
6:uu3975,
6:uu3976,
6:uu3977,
6:uu3978,
6:uu3979,
6:uu3980,
6:uu3981,
6:uu3982,
6:uu3983,
6:uu3984,
6:uu3985,
6:uu3986,
6:uu3987,
6:uu3988,
6:uu3989,
6:uu3990,
6:uu3991,
6:uu3992,
6:uu3993,
6:uu3994,
6:uu3995,
6:uu3996,
6:uu3997,
6:uu3998,
6:uu3999,
6:uu4000,
6:uu4001,
6:uu4002,
6:uu4003,
6:uu4004,
6:uu4005,
6:uu4006,
6:uu4007,
6:uu4008,
6:uu4009,
6:uu4010,
6:uu4011,
6:uu4012,
6:uu4013,
6:uu4014,
6:uu4015,
6:uu4016,
6:uu4017,
6:uu4018,
6:uu4019,
6:uu4020,
6:uu4021,
6:uu4022,
6:uu4023,
6:uu4024,
6:uu4025,
6:uu4026,
6:uu4027,
6:uu4028,
6:uu4029,
6:uu4030,
6:uu4031,
6:uu4032,
6:uu4033,
6:uu4034,
6:uu4035,
6:uu4036,
6:uu4037,
6:uu4038,
6:uu4039,
6:uu4040,
6:uu4041,
6:uu4042,
6:uu4043,
6:uu4044,
6:uu4045,
6:uu4046,
6:uu4047,
6:uu4048,
6:uu4049,
6:uu4050,
6:uu4051,
6:uu4052,
6:uu4053,
6:uu4054,
6:uu4055,
6:uu4056,
6:uu4057,
6:uu4058,
6:uu4059,
6:uu4060,
6:uu4061,
6:uu4062,
6:uu4063,
6:uu4064,
6:uu4065,
6:uu4066,
6:uu4067,
6:uu4068,
6:uu4069,
6:uu4070,
6:uu4071,
6:uu4072,
6:uu4073,
6:uu4074,
6:uu4075,
6:uu4076,
6:uu4077,
6:uu4078,
6:uu4079,
6:uu4080,
6:uu4081,
6:uu4082,
6:uu4083,
6:uu4084,
6:uu4085,
6:uu4086,
6:uu4087,
6:uu4088,
6:uu4089,
6:uu4090,
6:uu4091,
6:uu4092,
6:uu4093,
6:uu4094,
6:uu4095,
6:uu4096,
6:uu4097,
6:uu4098,
6:uu4099,
6:uu4100,
6:uu4101,
6:uu4102,
6:uu4103,
6:uu4104,
6:uu4105,
6:uu4106,
6:uu4107,
6:uu4108,
6:uu4109,
6:uu4110,
6:uu4111,
6:uu4112,
6:uu4113,
6:uu4114,
6:uu4115,
6:uu4116,
6:uu4117,
6:uu4118,
6:uu4119,
6:uu4120,
6:uu4121,
6:uu4122,
6:uu4123,
6:uu4124,
6:uu4125,
6:uu4126,
6:uu4127,
6:uu4128,
6:uu4129,
6:uu4130,
6:uu4131,
6:uu4132,
6:uu4133,
6:uu4134,
6:uu4135,
6:uu4136,
6:uu4137,
6:uu4138,
6:uu4139,
6:uu4140,
6:uu4141,
6:uu4142,
6:uu4143,
6:uu4144,
6:uu4145,
6:uu4146,
6:uu4147,
6:uu4148,
6:uu4149,
6:uu4150,
6:uu4151,
6:uu4152,
6:uu4153,
6:uu4154,
6:uu4155,
6:uu4156,
6:uu4157,
6:uu4158,
6:uu4159,
6:uu4160,
6:uu4161,
6:uu4162,
6:uu4163,
6:uu4164,
6:uu4165,
6:uu4166,
6:uu4167,
6:uu4168,
6:uu4169,
6:uu4170,
6:uu4171,
6:uu4172,
6:uu4173,
6:uu4174,
6:uu4175,
6:uu4176,
6:uu4177,
6:uu4178,
6:uu4179,
6:uu4180,
6:uu4181,
6:uu4182,
6:uu4183,
6:uu4184,
6:uu4185,
6:uu4186,
6:uu4187,
6:uu4188,
6:uu4189,
6:uu4190,
6:uu4191,
6:uu4192,
6:uu4193,
6:uu4194,
6:uu4195,
6:uu4196,
6:uu4197,
6:uu4198,
6:uu4199,
6:uu4200,
6:uu4201,
6:uu4202,
6:uu4203,
6:uu4204,
6:uu4205,
6:uu4206,
6:uu4207,
6:uu4208,
6:uu4209,
6:uu4210,
6:uu4211,
6:uu4212,
6:uu4213,
6:uu4214,
6:uu4215,
6:uu4216,
6:uu4217,
6:uu4218,
6:uu4219,
6:uu4220,
6:uu4221,
6:uu4222,
6:uu4223,
6:uu4224,
6:uu4225,
6:uu4226,
6:uu4227,
6:uu4228,
6:uu4229,
6:uu4230,
6:uu4231,
6:uu4232,
6:uu4233,
6:uu4234,
6:uu4235,
6:uu4236,
6:uu4237,
6:uu4238,
6:uu4239,
6:uu4240,
6:uu4241,
6:uu4242,
6:uu4243,
6:uu4244,
6:uu4245,
6:uu4246,
6:uu4247,
6:uu4248,
6:uu4249,
6:uu4250,
6:uu4251,
6:uu4252,
6:uu4253,
6:uu4254,
6:uu4255,
6:uu4256,
6:uu4257,
6:uu4258,
6:uu4259,
6:uu4260,
6:uu4261,
6:uu4262,
6:uu4263,
6:uu4264,
6:uu4265,
6:uu4266,
6:uu4267,
6:uu4268,
6:uu4269,
6:uu4270,
6:uu4271,
6:uu4272,
6:uu4273,
6:uu4274,
6:uu4275,
6:uu4276,
6:uu4277,
6:uu4278,
6:uu4279,
6:uu4280,
6:uu4281,
6:uu4282,
6:uu4283,
6:uu4284,
6:uu4285,
6:uu4286,
6:uu4287,
6:uu4288,
6:uu4289,
6:uu4290,
6:uu4291,
6:uu4292,
6:uu4293,
6:uu4294,
6:uu4295,
6:uu4296,
6:uu4297,
6:uu4298,
6:uu4299,
6:uu4300,
6:uu4301,
6:uu4302,
6:uu4303,
6:uu4304,
6:uu4305,
6:uu4306,
6:uu4307,
6:uu4308,
6:uu4309,
6:uu4310,
6:uu4311,
6:uu4312,
6:uu4313,
6:uu4314,
6:uu4315,
6:uu4316,
6:uu4317,
6:uu4318,
6:uu4319,
6:uu4320,
6:uu4321,
6:uu4322,
6:uu4323,
6:uu4324,
6:uu4325,
6:uu4326,
6:uu4327,
6:uu4328,
6:uu4329,
6:uu4330,
6:uu4331,
6:uu4332,
6:uu4333,
6:uu4334,
6:uu4335,
6:uu4336,
6:uu4337,
6:uu4338,
6:uu4339,
6:uu4340,
6:uu4341,
6:uu4342,
6:uu4343,
6:uu4344,
6:uu4345,
6:uu4346,
6:uu4347,
6:uu4348,
6:uu4349,
6:uu4350,
6:uu4351,
6:uu4352,
6:uu4353,
6:uu4354,
6:uu4355,
6:uu4356,
6:uu4357,
6:uu4358,
6:uu4359,
6:uu4360,
6:uu4361,
6:uu4362,
6:uu4363,
6:uu4364,
6:uu4365,
6:uu4366,
6:uu4367,
6:uu4368,
6:uu4369,
6:uu4370,
6:uu4371,
6:uu4372,
6:uu4373,
6:uu4374,
6:uu4375,
6:uu4376,
6:uu4377,
6:uu4378,
6:uu4379,
6:uu4380,
6:uu4381,
6:uu4382,
6:uu4383,
6:uu4384,
6:uu4385,
6:uu4386,
6:uu4387,
6:uu4388,
6:uu4389,
6:uu4390,
6:uu4391,
6:uu4392,
6:uu4393,
6:uu4394,
6:uu4395,
6:uu4396,
6:uu4397,
6:uu4398,
6:uu4399,
6:uu4400,
6:uu4401,
6:uu4402,
6:uu4403,
6:uu4404,
6:uu4405,
6:uu4406,
6:uu4407,
6:uu4408,
6:uu4409,
6:uu4410,
6:uu4411,
6:uu4412,
6:uu4413,
6:uu4414,
6:uu4415,
6:uu4416,
6:uu4417,
6:uu4418,
6:uu4419,
6:uu4420,
6:uu4421,
6:uu4422,
6:uu4423,
6:uu4424,
6:uu4425,
6:uu4426,
6:uu4427,
6:uu4428,
6:uu4429,
6:uu4430,
6:uu4431,
6:uu4432,
6:uu4433,
6:uu4434,
6:uu4435,
6:uu4436,
6:uu4437,
6:uu4438,
6:uu4439,
6:uu4440,
6:uu4441,
6:uu4442,
6:uu4443,
6:uu4444,
6:uu4445,
6:uu4446,
6:uu4447,
6:uu4448,
6:uu4449,
6:uu4450,
6:uu4451,
6:uu4452,
6:uu4453,
6:uu4454,
6:uu4455,
6:uu4456,
6:uu4457,
6:uu4458,
6:uu4459,
6:uu4460,
6:uu4461,
6:uu4462,
6:uu4463,
6:uu4464,
6:uu4465,
6:uu4466,
6:uu4467,
6:uu4468,
6:uu4469,
6:uu4470,
6:uu4471,
6:uu4472,
6:uu4473,
6:uu4474,
6:uu4475,
6:uu4476,
6:uu4477,
6:uu4478,
6:uu4479,
6:uu4480,
6:uu4481,
6:uu4482,
6:uu4483,
6:uu4484,
6:uu4485,
6:uu4486,
6:uu4487,
6:uu4488,
6:uu4489,
6:uu4490,
6:uu4491,
6:uu4492,
6:uu4493,
6:uu4494,
6:uu4495,
6:uu4496,
6:uu4497,
6:uu4498,
6:uu4499,
6:uu4500,
6:uu4501,
6:uu4502,
6:uu4503,
6:uu4504,
6:uu4505,
6:uu4506,
6:uu4507,
6:uu4508,
6:uu4509,
6:uu4510,
6:uu4511,
6:uu4512,
6:uu4513,
6:uu4514,
6:uu4515,
6:uu4516,
6:uu4517,
6:uu4518,
6:uu4519,
6:uu4520,
6:uu4521,
6:uu4522,
6:uu4523,
6:uu4524,
6:uu4525,
6:uu4526,
6:uu4527,
6:uu4528,
6:uu4529,
6:uu4530,
6:uu4531,
6:uu4532,
6:uu4533,
6:uu4534,
6:uu4535,
6:uu4536,
6:uu4537,
6:uu4538,
6:uu4539,
6:uu4540,
6:uu4541,
6:uu4542,
6:uu4543,
6:uu4544,
6:uu4545,
6:uu4546,
6:uu4547,
6:uu4548,
6:uu4549,
6:uu4550,
6:uu4551,
6:uu4552,
6:uu4553,
6:uu4554,
6:uu4555,
6:uu4556,
6:uu4557,
6:uu4558,
6:uu4559,
6:uu4560,
6:uu4561,
6:uu4562,
6:uu4563,
6:uu4564,
6:uu4565,
6:uu4566,
6:uu4567,
6:uu4568,
6:uu4569,
6:uu4570,
6:uu4571,
6:uu4572,
6:uu4573,
6:uu4574,
6:uu4575,
6:uu4576,
6:uu4577,
6:uu4578,
6:uu4579,
6:uu4580,
6:uu4581,
6:uu4582,
6:uu4583,
6:uu4584,
6:uu4585,
6:uu4586,
6:uu4587,
6:uu4588,
6:uu4589,
6:uu4590,
6:uu4591,
6:uu4592,
6:uu4593,
6:uu4594,
6:uu4595,
6:uu4596,
6:uu4597,
6:uu4598,
6:uu4599,
6:uu4600,
6:uu4601,
6:uu4602,
6:uu4603,
6:uu4604,
6:uu4605,
6:uu4606,
6:uu4607,
6:uu4608,
6:uu4609,
6:uu4610,
6:uu4611,
6:uu4612,
6:uu4613,
6:uu4614,
6:uu4615,
6:uu4616,
6:uu4617,
6:uu4618,
6:uu4619,
6:uu4620,
6:uu4621,
6:uu4622,
6:uu4623,
6:uu4624,
6:uu4625,
6:uu4626,
6:uu4627,
6:uu4628,
6:uu4629,
6:uu4630,
6:uu4631,
6:uu4632,
6:uu4633,
6:uu4634,
6:uu4635,
6:uu4636,
6:uu4637,
6:uu4638,
6:uu4639,
6:uu4640,
6:uu4641,
6:uu4642,
6:uu4643,
6:uu4644,
6:uu4645,
6:uu4646,
6:uu4647,
6:uu4648,
6:uu4649,
6:uu4650,
6:uu4651,
6:uu4652,
6:uu4653,
6:uu4654,
6:uu4655,
6:uu4656,
6:uu4657,
6:uu4658,
6:uu4659,
6:uu4660,
6:uu4661,
6:uu4662,
6:uu4663,
6:uu4664,
6:uu4665,
6:uu4666,
6:uu4667,
6:uu4668,
6:uu4669,
6:uu4670,
6:uu4671,
6:uu4672,
6:uu4673,
6:uu4674,
6:uu4675,
6:uu4676,
6:uu4677,
6:uu4678,
6:uu4679,
6:uu4680,
6:uu4681,
6:uu4682,
6:uu4683,
6:uu4684,
6:uu4685,
6:uu4686,
6:uu4687,
6:uu4688,
6:uu4689,
6:uu4690,
6:uu4691,
6:uu4692,
6:uu4693,
6:uu4694,
6:uu4695,
6:uu4696,
6:uu4697,
6:uu4698,
6:uu4699,
6:uu4700,
6:uu4701,
6:uu4702,
6:uu4703,
6:uu4704,
6:uu4705,
6:uu4706,
6:uu4707,
6:uu4708,
6:uu4709,
6:uu4710,
6:uu4711,
6:uu4712,
6:uu4713,
6:uu4714,
6:uu4715,
6:uu4716,
6:uu4717,
6:uu4718,
6:uu4719,
6:uu4720,
6:uu4721,
6:uu4722,
6:uu4723,
6:uu4724,
6:uu4725,
6:uu4726,
6:uu4727,
6:uu4728,
6:uu4729,
6:uu4730,
6:uu4731,
6:uu4732,
6:uu4733,
6:uu4734,
6:uu4735,
6:uu4736,
6:uu4737,
6:uu4738,
6:uu4739,
6:uu4740,
6:uu4741,
6:uu4742,
6:uu4743,
6:uu4744,
6:uu4745,
6:uu4746,
6:uu4747,
6:uu4748,
6:uu4749,
6:uu4750,
6:uu4751,
6:uu4752,
6:uu4753,
6:uu4754,
6:uu4755,
6:uu4756,
6:uu4757,
6:uu4758,
6:uu4759,
6:uu4760,
6:uu4761,
6:uu4762,
6:uu4763,
6:uu4764,
6:uu4765,
6:uu4766,
6:uu4767,
6:uu4768,
6:uu4769,
6:uu4770,
6:uu4771,
6:uu4772,
6:uu4773,
6:uu4774,
6:uu4775,
6:uu4776,
6:uu4777,
6:uu4778,
6:uu4779,
6:uu4780,
6:uu4781,
6:uu4782,
6:uu4783,
6:uu4784,
6:uu4785,
6:uu4786,
6:uu4787,
6:uu4788,
6:uu4789,
6:uu4790,
6:uu4791,
6:uu4792,
6:uu4793,
6:uu4794,
6:uu4795,
6:uu4796,
6:uu4797,
6:uu4798,
6:uu4799,
6:uu4800,
6:uu4801,
6:uu4802,
6:uu4803,
6:uu4804,
6:uu4805,
6:uu4806,
6:uu4807,
6:uu4808,
6:uu4809,
6:uu4810,
6:uu4811,
6:uu4812,
6:uu4813,
6:uu4814,
6:uu4815,
6:uu4816,
6:uu4817,
6:uu4818,
6:uu4819,
6:uu4820,
6:uu4821,
6:uu4822,
6:uu4823,
6:uu4824,
6:uu4825,
6:uu4826,
6:uu4827,
6:uu4828,
6:uu4829,
6:uu4830,
6:uu4831,
6:uu4832,
6:uu4833,
6:uu4834,
6:uu4835,
6:uu4836,
6:uu4837,
6:uu4838,
6:uu4839,
6:uu4840,
6:uu4841,
6:uu4842,
6:uu4843,
6:uu4844,
6:uu4845,
6:uu4846,
6:uu4847,
6:uu4848,
6:uu4849,
6:uu4850,
6:uu4851,
6:uu4852,
6:uu4853,
6:uu4854,
6:uu4855,
6:uu4856,
6:uu4857,
6:uu4858,
6:uu4859,
6:uu4860,
6:uu4861,
6:uu4862,
6:uu4863,
6:uu4864,
6:uu4865,
6:uu4866,
6:uu4867,
6:uu4868,
6:uu4869,
6:uu4870,
6:uu4871,
6:uu4872,
6:uu4873,
6:uu4874,
6:uu4875,
6:uu4876,
6:uu4877,
6:uu4878,
6:uu4879,
6:uu4880,
6:uu4881,
6:uu4882,
6:uu4883,
6:uu4884,
6:uu4885,
6:uu4886,
6:uu4887,
6:uu4888,
6:uu4889,
6:uu4890,
6:uu4891,
6:uu4892,
6:uu4893,
6:uu4894,
6:uu4895,
6:uu4896,
6:uu4897,
6:uu4898,
6:uu4899,
6:uu4900,
6:uu4901,
6:uu4902,
6:uu4903,
6:uu4904,
6:uu4905,
6:uu4906,
6:uu4907,
6:uu4908,
6:uu4909,
6:uu4910,
6:uu4911,
6:uu4912,
6:uu4913,
6:uu4914,
6:uu4915,
6:uu4916,
6:uu4917,
6:uu4918,
6:uu4919,
6:uu4920,
6:uu4921,
6:uu4922,
6:uu4923,
6:uu4924,
6:uu4925,
6:uu4926,
6:uu4927,
6:uu4928,
6:uu4929,
6:uu4930,
6:uu4931,
6:uu4932,
6:uu4933,
6:uu4934,
6:uu4935,
6:uu4936,
6:uu4937,
6:uu4938,
6:uu4939,
6:uu4940,
6:uu4941,
6:uu4942,
6:uu4943,
6:uu4944,
6:uu4945,
6:uu4946,
6:uu4947,
6:uu4948,
6:uu4949,
6:uu4950,
6:uu4951,
6:uu4952,
6:uu4953,
6:uu4954,
6:uu4955,
6:uu4956,
6:uu4957,
6:uu4958,
6:uu4959,
6:uu4960,
6:uu4961,
6:uu4962,
6:uu4963,
6:uu4964,
6:uu4965,
6:uu4966,
6:uu4967,
6:uu4968,
6:uu4969,
6:uu4970,
6:uu4971,
6:uu4972,
6:uu4973,
6:uu4974,
6:uu4975,
6:uu4976,
6:uu4977,
6:uu4978,
6:uu4979,
6:uu4980,
6:uu4981,
6:uu4982,
6:uu4983,
6:uu4984,
6:uu4985,
6:uu4986,
6:uu4987,
6:uu4988,
6:uu4989,
6:uu4990,
6:uu4991,
6:uu4992,
6:uu4993,
6:uu4994,
6:uu4995,
6:uu4996,
6:uu4997,
6:uu4998,
6:uu4999,
6:uu5000,
6:uu5001,
6:uu5002,
6:uu5003,
6:uu5004,
6:uu5005,
6:uu5006,
6:uu5007,
6:uu5008,
6:uu5009,
6:uu5010,
6:uu5011,
6:uu5012,
6:uu5013,
6:uu5014,
6:uu5015,
6:uu5016,
6:uu5017,
6:uu5018,
6:uu5019,
6:uu5020,
6:uu5021,
6:uu5022,
6:uu5023,
6:uu5024,
6:uu5025,
6:uu5026,
6:uu5027,
6:uu5028,
6:uu5029,
6:uu5030,
6:uu5031,
6:uu5032,
6:uu5033,
6:uu5034,
6:uu5035,
6:uu5036,
6:uu5037,
6:uu5038,
6:uu5039,
6:uu5040,
6:uu5041,
6:uu5042,
6:uu5043,
6:uu5044,
6:uu5045,
6:uu5046,
6:uu5047,
6:uu5048,
6:uu5049,
6:uu5050,
6:uu5051,
6:uu5052,
6:uu5053,
6:uu5054,
6:uu5055,
6:uu5056,
6:uu5057,
6:uu5058,
6:uu5059,
6:uu5060,
6:uu5061,
6:uu5062,
6:uu5063,
6:uu5064,
6:uu5065,
6:uu5066,
6:uu5067,
6:uu5068,
6:uu5069,
6:uu5070,
6:uu5071,
6:uu5072,
6:uu5073,
6:uu5074,
6:uu5075,
6:uu5076,
6:uu5077,
6:uu5078,
6:uu5079,
6:uu5080,
6:uu5081,
6:uu5082,
6:uu5083,
6:uu5084,
6:uu5085,
6:uu5086,
6:uu5087,
6:uu5088,
6:uu5089,
6:uu5090,
6:uu5091,
6:uu5092,
6:uu5093,
6:uu5094,
6:uu5095,
6:uu5096,
6:uu5097,
6:uu5098,
6:uu5099,
6:uu5100,
6:uu5101,
6:uu5102,
6:uu5103,
6:uu5104,
6:uu5105,
6:uu5106,
6:uu5107,
6:uu5108,
6:uu5109,
6:uu5110,
6:uu5111,
6:uu5112,
6:uu5113,
6:uu5114,
6:uu5115,
6:uu5116,
6:uu5117,
6:uu5118,
6:uu5119,
6:uu5120,
6:uu5121,
6:uu5122,
6:uu5123,
6:uu5124,
6:uu5125,
6:uu5126,
6:uu5127,
6:uu5128,
6:uu5129,
6:uu5130,
6:uu5131,
6:uu5132,
6:uu5133,
6:uu5134,
6:uu5135,
6:uu5136,
6:uu5137,
6:uu5138,
6:uu5139,
6:uu5140,
6:uu5141,
6:uu5142,
6:uu5143,
6:uu5144,
6:uu5145,
6:uu5146,
6:uu5147,
6:uu5148,
6:uu5149,
6:uu5150,
6:uu5151,
6:uu5152,
6:uu5153,
6:uu5154,
6:uu5155,
6:uu5156,
6:uu5157,
6:uu5158,
6:uu5159,
6:uu5160,
6:uu5161,
6:uu5162,
6:uu5163,
6:uu5164,
6:uu5165,
6:uu5166,
6:uu5167,
6:uu5168,
6:uu5169,
6:uu5170,
0=0x1.0e5604189374cp-2
5=0x1.8cc6cd5964a03p+0
6=0x1.f1fb0498960e6p-1
44=0x1.49cf56eac8605p-1
84=0x1.310c11863a414p+0
170=0x1.8cc6cd5964a03p+0
638=0x1.49cf56eac8605p-1
860=0x1.310c11863a414p+0
1177=0x1.12787d952c219p+0
1178=-0x1.bf487fcb923a2p-2
1179=-0x1.78811b1d92b8p-2
1180=0x1.310c11863a414p+0
1181=0x1.21ff2e48e8a72p-3
1182=0x1.c9363f572de43p-1
1183=0x1.0e5604189374cp-2
1184=0x1.4855da272863p-3
1185=0x1.eb851eb851eb8p-4
1186=0x1.eb851eb851eb8p-4
1187=0x1.f1fb0498960e6p-1
1189=0x1.0e5604189374cp-2
1190=0x1.bf487fcb923a2p-2
1191=0x1.26e978d4fdf3bp-5
1192=0x1.1be6e653868fcp-2
1194=0x1.61e4f765fd8adp-6
1195=0x1.12787d952c219p+0
1196=0x1.331a08bfc2226p-3
1197=0x1.49cf56eac8605p-1
1198=-0x1.bf487fcb923a2p-2
1199=0x1.310c11863a414p+0
1200=0x1.310c11863a414p+0
1201=0x1.f1fb0498960e6p-1
1202=0x1.8cc6cd5964a03p+0
1203=0x1.49cf56eac8605p-1
1204=0x1.4e09784ec636bp-2
1205=-0x1.bf487fcb923a2p-2
1206=0x1.0e5604189374cp-2
1207=0x1.0e5604189374cp-2
1208=0x1.8cc6cd5964a03p+0
1209=0x1.26202539756dp-5
1210=0x1.49cf56eac8605p-1
1211=0x1.0e5604189374cp-2
1212=-0x1.49cf56eac8605p-1
1213=0x1.a6b50b0f27bb2p-3
1214=-0x1.bf487fcb923a2p-2
1216=-0x1.d4b6a619da9c4p-6
1217=-0x1.075c3fc6ea5e8p-6
1218=-0x1.49cf56eac8605p-1
1219=-0x1.bf487fcb923a2p-2
1220=0x1.bf487fcb923a2p-2
1221=0x1.310c11863a414p+0
1222=-0x1.8548a9bcfd4bep-4
1223=-0x1.eb851eb851eb8p-4
1224=-0x1.26e978d4fdf3bp-4
1225=-0x1.49cf56eac8605p-1
1226=-0x1.bf487fcb923a2p-2
1227=-0x1.bf487fcb923a2p-2
1228=-0x1.bf487fcb923a2p-2
1229=-0x1.bf487fcb923a2p-2
1230=-0x1.8e53eb399f5dep-3
1231=-0x1.49cf56eac8605p-1
1232=-0x1.49cf56eac8605p-1
1233=0x1.12787d952c219p+0
1234=0x1.eb851eb851eb8p-4
1235=0x1.4e3bcd35a8587p-3
1236=0x1.f1fb0498960e6p-1
1237=0x1.bf487fcb923a2p-2
1238=0x1.49cf56eac8605p-1
1239=-0x1.bf487fcb923a2p-2
1240=-0x1.bf487fcb923a2p-2
1241=-0x1.49cf56eac8605p-1
1242=-0x1.49cf56eac8605p-1
1243=-0x1.bf487fcb923a2p-2
1244=-0x1.bf487fcb923a2p-2
1245=-0x1.bf487fcb923a2p-2
1246=-0x1.bf487fcb923a2p-2
1247=0x1.eb851eb851eb8p-4
1248=0x1.3fe1975f2cb64p-2
1249=0x1.eb851eb851eb8p-4
1250=-0x1.bf487fcb923a2p-2
1251=-0x1.bf487fcb923a2p-2
1253=-0x1.49cf56eac8605p-1
1254=0x1.8cc6cd5964a03p+0
1255=-0x1.49cf56eac8605p-1
1257=-0x1.49cf56eac8605p-1
1258=0x1.eb851eb851eb8p-4
1259=-0x1.49cf56eac8605p-1
1260=-0x1.bf487fcb923a2p-2
1263=-0x1.49cf56eac8605p-1
1264=0x1.eb851eb851eb8p-4
1265=0x1.c78361c9c98d1p-1
1266=-0x1.bf487fcb923a2p-2
1267=0x1.310c11863a414p+0
1269=0x1.3a92a30553262p-4
1271=-0x1.bf487fcb923a2p-2
1272=0x1.310c11863a414p+0
1273=-0x1.a6b50b0f27bb2p-3
1274=0x1.310c11863a414p+0
1275=-0x1.bf487fcb923a2p-2
1276=0x1.13404ea4a8c16p-5
1278=0x1.831f03d145d85p-2
1279=0x1.6d7b838403854p-1
1280=0x1.0e5604189374cp-2
1281=-0x1.49cf56eac8605p-1
1282=-0x1.49cf56eac8605p-1
1283=-0x1.bf487fcb923a2p-2
1284=-0x1.bf487fcb923a2p-2
1285=-0x1.bf487fcb923a2p-2
1286=0x1.0e5604189374cp-2
1287=0x1.310c11863a414p+0
1288=-0x1.bf487fcb923a2p-2
1289=-0x1.bf487fcb923a2p-2
1290=-0x1.bf487fcb923a2p-2
1291=0x1.8cc6cd5964a03p+0
1292=-0x1.49cf56eac8605p-1
1293=-0x1.bf487fcb923a2p-2
1294=-0x1.26e978d4fdf3bp-4
1295=0x1.eb851eb851eb8p-4
1296=-0x1.bf487fcb923a2p-2
1297=0x1.3f789c0b1d714p+1
1298=0x1.0e5604189374cp-2
1299=-0x1.a6b50b0f27bb2p-3
1301=-0x1.bf487fcb923a2p-2
1303=-0x1.bf487fcb923a2p-2
1304=-0x1.bf487fcb923a2p-2
1305=0x1.a6b50b0f27bb2p-3
1306=0x1.0e5604189374cp-2
1307=-0x1.bf487fcb923a2p-2
1308=-0x1.bf487fcb923a2p-2
1310=0x1.f1fb0498960e6p-1
1311=0x1.7f950b955f783p-2
1312=-0x1.eb851eb851eb8p-4
1313=0x1.8cc6cd5964a03p+0
1314=-0x1.4855da272863p-3
1315=-0x1.bf487fcb923a2p-2
1316=-0x1.bf487fcb923a2p-2
1317=0x1.310c11863a414p+0
1318=-0x1.49cf56eac8605p-1
1320=0x1.1f0c34c1a8ac4p-4
1321=0x1.1f57b41bfbdfp-1
1322=0x1.4855da272863p-3
1323=-0x1.bf487fcb923a2p-2
1324=-0x1.bf487fcb923a2p-2
1325=-0x1.bf487fcb923a2p-2
1326=-0x1.49cf56eac8605p-1
1327=-0x1.bf487fcb923a2p-2
1328=-0x1.0e5604189374cp-2
1329=-0x1.49cf56eac8605p-1
1330=0x1.a6b50b0f27bb2p-3
1331=-0x1.bf487fcb923a2p-2
1332=-0x1.49cf56eac8605p-1
1333=0x1.8cc6cd5964a03p+0
1334=-0x1.bf487fcb923a2p-2
1335=-0x1.bf487fcb923a2p-2
1336=0x1.eb851eb851eb8p-4
1337=0x1.310c11863a414p+0
1338=-0x1.bf487fcb923a2p-2
1339=-0x1.bf487fcb923a2p-2
1340=-0x1.bf487fcb923a2p-2
1341=-0x1.bf487fcb923a2p-2
1342=-0x1.bf487fcb923a2p-2
1343=-0x1.bf487fcb923a2p-2
1345=-0x1.bf487fcb923a2p-2
1346=-0x1.bf487fcb923a2p-2
1347=0x1.6d7b838403854p-1
1348=-0x1.bf487fcb923a2p-2
1349=-0x1.bf487fcb923a2p-2
1350=-0x1.bf487fcb923a2p-2
1351=-0x1.bf487fcb923a2p-2
1352=0x1.78811b1d92b8p-2
1354=-0x1.bf487fcb923a2p-2
1356=-0x1.bf487fcb923a2p-2
1358=0x1.0e5604189374cp-2
1359=-0x1.eb851eb851eb8p-4
1360=-0x1.bf487fcb923a2p-2
1361=-0x1.bf487fcb923a2p-2
1362=-0x1.bf487fcb923a2p-2
1363=-0x1.49cf56eac8605p-1
1364=0x1.df548ecd8dbcep-3
1365=0x1.bf487fcb923a2p-2
1366=-0x1.bf487fcb923a2p-2
1367=-0x1.bf487fcb923a2p-2
1368=-0x1.bf487fcb923a2p-2
1369=-0x1.bf487fcb923a2p-2
1371=-0x1.49cf56eac8605p-1
1372=-0x1.49cf56eac8605p-1
1373=-0x1.49cf56eac8605p-1
1374=-0x1.49cf56eac8605p-1
1376=-0x1.bf487fcb923a2p-2
1377=-0x1.bf487fcb923a2p-2
1378=-0x1.eb851eb851eb8p-4
1379=-0x1.bf487fcb923a2p-2
1380=-0x1.bf487fcb923a2p-2
1381=-0x1.49cf56eac8605p-1
1382=-0x1.bf487fcb923a2p-2
1383=-0x1.bf487fcb923a2p-2
1384=-0x1.bf487fcb923a2p-2
1385=-0x1.bf487fcb923a2p-2
1386=-0x1.bf487fcb923a2p-2
1387=0x1.21ff2e48e8a72p-3
1389=0x1.bf487fcb923a2p-2
1390=-0x1.bf487fcb923a2p-2
1391=-0x1.bf487fcb923a2p-2
1392=-0x1.49cf56eac8605p-1
1393=-0x1.bf487fcb923a2p-2
1394=0x1.1be6e653868fcp-2
1395=-0x1.bf487fcb923a2p-2
1396=-0x1.bf487fcb923a2p-2
1397=0x1.21ff2e48e8a72p-3
1399=0x1.78811b1d92b8p-2
1400=-0x1.bf487fcb923a2p-2
1401=0x1.8cc6cd5964a03p+0
1403=-0x1.49cf56eac8605p-1
1404=0x1.1f0c34c1a8ac4p-4
1406=0x1.3d859c8c9320dp-2
1407=-0x1.1f0c34c1a8ac4p-4
1408=-0x1.bf487fcb923a2p-2
1409=0x1.78811b1d92b8p-2
1410=0x1.eb851eb851eb8p-4
1411=0x1.eb851eb851eb8p-4
1412=-0x1.bf487fcb923a2p-2
1413=-0x1.bf487fcb923a2p-2
1414=-0x1.bf487fcb923a2p-2
1415=-0x1.bf487fcb923a2p-2
1416=-0x1.bf487fcb923a2p-2
1417=-0x1.bf487fcb923a2p-2
1418=-0x1.bf487fcb923a2p-2
1419=-0x1.bf487fcb923a2p-2
1420=-0x1.eb851eb851eb8p-4
1421=0x1.831f03d145d85p-2
1422=-0x1.49cf56eac8605p-1
1423=-0x1.49cf56eac8605p-1
1424=0x1.0e5604189374cp-2
1425=-0x1.bf487fcb923a2p-2
1426=-0x1.4855da272863p-3
1429=-0x1.bf487fcb923a2p-2
1430=0x1.b280f12c27a64p-3
1431=-0x1.bf487fcb923a2p-2
1432=0x1.eb851eb851eb8p-4
1433=-0x1.bf487fcb923a2p-2
1434=0x1.1be6e653868fcp-2
1435=-0x1.eb851eb851eb8p-4
1436=-0x1.bf487fcb923a2p-2
1437=-0x1.4a4d2b2bfdb4ep-6
1439=-0x1.bf487fcb923a2p-2
1440=0x1.21ff2e48e8a72p-3
1441=-0x1.49cf56eac8605p-1
1442=-0x1.bf487fcb923a2p-2
1443=-0x1.bf487fcb923a2p-2
1444=-0x1.bf487fcb923a2p-2
1446=-0x1.bf487fcb923a2p-2
1448=-0x1.bf487fcb923a2p-2
1449=0x1.4e09784ec636bp-2
1450=-0x1.bf487fcb923a2p-2
1451=-0x1.49cf56eac8605p-1
1453=-0x1.bf487fcb923a2p-2
1454=-0x1.eb851eb851eb8p-4
1456=0x1.bcec84f8f8a4bp-2
1457=0x1.0e5604189374cp-2
1459=-0x1.bf487fcb923a2p-2
1460=-0x1.bf487fcb923a2p-2
1461=-0x1.bf487fcb923a2p-2
1462=-0x1.bf487fcb923a2p-2
1463=-0x1.bf487fcb923a2p-2
1464=-0x1.49cf56eac8605p-1
1465=0x1.0e5604189374cp-2
1466=-0x1.bf487fcb923a2p-2
1467=-0x1.bf487fcb923a2p-2
1468=0x1.12787d952c219p+0
1469=-0x1.bf487fcb923a2p-2
1470=-0x1.0e5604189374cp-2
1471=-0x1.bf487fcb923a2p-2
1472=0x1.8cc6cd5964a03p+0
1473=0x1.c78361c9c98d1p-1
1475=0x1.eb851eb851eb8p-4
1476=-0x1.bf487fcb923a2p-2
1477=-0x1.bf487fcb923a2p-2
1478=-0x1.bf487fcb923a2p-2
1479=-0x1.bf487fcb923a2p-2
1480=-0x1.bf487fcb923a2p-2
1481=-0x1.bf487fcb923a2p-2
1482=0x1.8cc6cd5964a03p+0
1483=-0x1.bf487fcb923a2p-2
1484=-0x1.bf487fcb923a2p-2
1485=-0x1.bf487fcb923a2p-2
1486=0x1.26e978d4fdf3bp-4
1487=-0x1.bf487fcb923a2p-2
1489=-0x1.bf487fcb923a2p-2
1490=-0x1.49cf56eac8605p-1
1492=-0x1.bf487fcb923a2p-2
1493=-0x1.bf487fcb923a2p-2
1495=0x1.bf487fcb923a2p-2
1496=-0x1.bf487fcb923a2p-2
1498=-0x1.bf487fcb923a2p-2
1499=-0x1.bf487fcb923a2p-2
1500=-0x1.bf487fcb923a2p-2
1501=-0x1.bf487fcb923a2p-2
1502=-0x1.bf487fcb923a2p-2
1503=-0x1.bf487fcb923a2p-2
1504=-0x1.bf487fcb923a2p-2
1505=-0x1.bf487fcb923a2p-2
1506=-0x1.bf487fcb923a2p-2
1507=-0x1.bf487fcb923a2p-2
1508=-0x1.bf487fcb923a2p-2
1509=-0x1.bf487fcb923a2p-2
1510=-0x1.bf487fcb923a2p-2
1511=0x1.86a1f02a4a007p-1
1512=-0x1.eb851eb851eb8p-4
1513=-0x1.bf487fcb923a2p-2
1514=-0x1.bf487fcb923a2p-2
1516=-0x1.bf487fcb923a2p-2
1517=-0x1.bf487fcb923a2p-2
1518=-0x1.49cf56eac8605p-1
1519=-0x1.bf487fcb923a2p-2
1520=-0x1.bf487fcb923a2p-2
1521=-0x1.49cf56eac8605p-1
1522=-0x1.bf487fcb923a2p-2
1523=0x1.eb851eb851eb8p-4
1524=-0x1.bf487fcb923a2p-2
1525=0x1.eb851eb851eb8p-4
1526=0x1.eb851eb851eb8p-4
1527=-0x1.bf487fcb923a2p-2
1528=-0x1.bf487fcb923a2p-2
1529=-0x1.bf487fcb923a2p-2
1530=-0x1.49cf56eac8605p-1
1534=-0x1.bf487fcb923a2p-2
1535=0x1.bf487fcb923a2p-2
1536=-0x1.bf487fcb923a2p-2
1537=0x1.bcec84f8f8a4bp-2
1538=-0x1.bf487fcb923a2p-2
1539=-0x1.49cf56eac8605p-1
1540=-0x1.bf487fcb923a2p-2
1541=-0x1.bf487fcb923a2p-2
1542=-0x1.bf487fcb923a2p-2
1543=-0x1.bf487fcb923a2p-2
1544=-0x1.bf487fcb923a2p-2
1545=-0x1.bf487fcb923a2p-2
1546=-0x1.bf487fcb923a2p-2
1547=-0x1.bf487fcb923a2p-2
1548=-0x1.bf487fcb923a2p-2
1549=-0x1.bf487fcb923a2p-2
1550=-0x1.bf487fcb923a2p-2
1551=-0x1.bf487fcb923a2p-2
1552=-0x1.bf487fcb923a2p-2
1555=-0x1.bf487fcb923a2p-2
1556=-0x1.bf487fcb923a2p-2
1557=-0x1.bf487fcb923a2p-2
1558=-0x1.bf487fcb923a2p-2
1559=-0x1.eb851eb851eb8p-4
1560=-0x1.bf487fcb923a2p-2
1561=-0x1.49cf56eac8605p-1
1563=0x1.0e5604189374cp-2
1564=0x1.3d859c8c9320dp-2
1565=-0x1.bf487fcb923a2p-2
1566=-0x1.bf487fcb923a2p-2
1567=-0x1.bf487fcb923a2p-2
1568=-0x1.bf487fcb923a2p-2
1569=-0x1.bf487fcb923a2p-2
1570=0x1.12787d952c219p+0
1572=-0x1.bf487fcb923a2p-2
1574=-0x1.bf487fcb923a2p-2
1575=-0x1.49cf56eac8605p-1
1576=-0x1.bf487fcb923a2p-2
1578=-0x1.bf487fcb923a2p-2
1579=0x1.831f03d145d85p-2
1580=-0x1.bf487fcb923a2p-2
1581=-0x1.bf487fcb923a2p-2
1582=-0x1.bf487fcb923a2p-2
1583=0x1.c9363f572de43p-1
1584=-0x1.bf487fcb923a2p-2
1585=-0x1.bf487fcb923a2p-2
1591=-0x1.bf487fcb923a2p-2
1592=-0x1.bf487fcb923a2p-2
1593=-0x1.bf487fcb923a2p-2
1594=-0x1.bf487fcb923a2p-2
1595=-0x1.bf487fcb923a2p-2
1596=-0x1.bf487fcb923a2p-2
1597=-0x1.bf487fcb923a2p-2
1598=-0x1.bf487fcb923a2p-2
1599=-0x1.bf487fcb923a2p-2
1600=-0x1.bf487fcb923a2p-2
1601=-0x1.bf487fcb923a2p-2
1602=-0x1.bf487fcb923a2p-2
1603=-0x1.bf487fcb923a2p-2
1605=-0x1.bf487fcb923a2p-2
1606=-0x1.0e5604189374cp-2
1607=-0x1.bf487fcb923a2p-2
1609=-0x1.bf487fcb923a2p-2
1610=-0x1.bf487fcb923a2p-2
1611=-0x1.bf487fcb923a2p-2
1612=-0x1.bf487fcb923a2p-2
1613=-0x1.bf487fcb923a2p-2
1614=-0x1.bf487fcb923a2p-2
1615=-0x1.bf487fcb923a2p-2
1616=-0x1.bf487fcb923a2p-2
1617=-0x1.bf487fcb923a2p-2
1618=0x1.7f950b955f783p-2
1619=-0x1.bf487fcb923a2p-2
1621=-0x1.bf487fcb923a2p-2
1622=-0x1.bf487fcb923a2p-2
1623=-0x1.bf487fcb923a2p-2
1625=-0x1.bf487fcb923a2p-2
1626=-0x1.49cf56eac8605p-1
1627=-0x1.bf487fcb923a2p-2
1628=-0x1.49cf56eac8605p-1
1629=-0x1.bf487fcb923a2p-2
1630=-0x1.bf487fcb923a2p-2
1632=0x1.eb851eb851eb8p-4
1633=-0x1.bf487fcb923a2p-2
1634=-0x1.bf487fcb923a2p-2
1635=-0x1.bf487fcb923a2p-2
1637=-0x1.bf487fcb923a2p-2
1638=-0x1.bf487fcb923a2p-2
1639=-0x1.bf487fcb923a2p-2
1640=0x1.a6b50b0f27bb2p-3
1641=-0x1.bf487fcb923a2p-2
1642=-0x1.bf487fcb923a2p-2
1643=-0x1.bf487fcb923a2p-2
1644=-0x1.bf487fcb923a2p-2
1645=0x1.8cc6cd5964a03p+0
1646=-0x1.bf487fcb923a2p-2
1647=-0x1.bf487fcb923a2p-2
1648=-0x1.bf487fcb923a2p-2
1649=0x1.86a1f02a4a007p-1
1650=-0x1.bf487fcb923a2p-2
1651=-0x1.bf487fcb923a2p-2
1652=0x1.831f03d145d85p-2
1653=-0x1.bf487fcb923a2p-2
1654=-0x1.bf487fcb923a2p-2
1655=-0x1.bf487fcb923a2p-2
1656=0x1.1be6e653868fcp-2
1657=-0x1.bf487fcb923a2p-2
1658=-0x1.bf487fcb923a2p-2
1659=-0x1.bf487fcb923a2p-2
1660=-0x1.bf487fcb923a2p-2
1661=-0x1.bf487fcb923a2p-2
1663=-0x1.bf487fcb923a2p-2
1664=-0x1.bf487fcb923a2p-2
1665=-0x1.bf487fcb923a2p-2
1666=-0x1.bf487fcb923a2p-2
1667=-0x1.bf487fcb923a2p-2
1668=-0x1.bf487fcb923a2p-2
1669=-0x1.bf487fcb923a2p-2
1670=0x1.bcec84f8f8a4bp-2
1672=0x1.bf487fcb923a2p-2
1673=-0x1.bf487fcb923a2p-2
1674=-0x1.bf487fcb923a2p-2
1675=-0x1.49cf56eac8605p-1
1677=-0x1.bf487fcb923a2p-2
1679=-0x1.bf487fcb923a2p-2
1681=-0x1.bf487fcb923a2p-2
1682=-0x1.bf487fcb923a2p-2
1683=-0x1.bf487fcb923a2p-2
1684=-0x1.bf487fcb923a2p-2
1685=-0x1.bf487fcb923a2p-2
1686=-0x1.bf487fcb923a2p-2
1687=-0x1.bf487fcb923a2p-2
1688=-0x1.bf487fcb923a2p-2
1689=-0x1.bf487fcb923a2p-2
1690=-0x1.bf487fcb923a2p-2
1692=-0x1.bf487fcb923a2p-2
1693=-0x1.bf487fcb923a2p-2
1694=-0x1.bf487fcb923a2p-2
1695=-0x1.bf487fcb923a2p-2
1696=-0x1.bf487fcb923a2p-2
1697=-0x1.bf487fcb923a2p-2
1698=-0x1.bf487fcb923a2p-2
1699=-0x1.bf487fcb923a2p-2
1700=0x1.eb851eb851eb8p-4
1701=-0x1.bf487fcb923a2p-2
1702=-0x1.bf487fcb923a2p-2
1703=0x1.eb851eb851eb8p-4
1704=-0x1.bf487fcb923a2p-2
1705=-0x1.bf487fcb923a2p-2
1706=-0x1.bf487fcb923a2p-2
1707=-0x1.bf487fcb923a2p-2
1708=-0x1.bf487fcb923a2p-2
1709=-0x1.49cf56eac8605p-1
1710=-0x1.bf487fcb923a2p-2
1711=-0x1.49cf56eac8605p-1
1712=0x1.86a1f02a4a007p-1
1713=0x1.8cc6cd5964a03p+0
1714=0x1.310c11863a414p+0
1716=-0x1.bf487fcb923a2p-2
1718=0x1.eb851eb851eb8p-4
1719=-0x1.bf487fcb923a2p-2
1720=-0x1.bf487fcb923a2p-2
1721=-0x1.bf487fcb923a2p-2
1722=-0x1.bf487fcb923a2p-2
1724=0x1.1f57b41bfbdfp-1
1725=0x1.eb851eb851eb8p-4
1726=-0x1.bf487fcb923a2p-2
1727=0x1.c9363f572de43p-1
1728=-0x1.bf487fcb923a2p-2
1729=-0x1.bf487fcb923a2p-2
1730=-0x1.bf487fcb923a2p-2
1731=0x1.21ff2e48e8a72p-3
1733=-0x1.bf487fcb923a2p-2
1736=-0x1.bf487fcb923a2p-2
1737=-0x1.bf487fcb923a2p-2
1738=0x1.130df9bdc69f8p-2
1740=-0x1.49cf56eac8605p-1
1742=0x1.310c11863a414p+0
1743=-0x1.bf487fcb923a2p-2
1744=-0x1.bf487fcb923a2p-2
1745=-0x1.bf487fcb923a2p-2
1746=-0x1.bf487fcb923a2p-2
1747=-0x1.49cf56eac8605p-1
1748=-0x1.bf487fcb923a2p-2
1750=-0x1.bf487fcb923a2p-2
1751=0x1.3d859c8c9320dp-2
1752=-0x1.bf487fcb923a2p-2
1753=-0x1.bf487fcb923a2p-2
1754=0x1.bf487fcb923a2p-2
1755=-0x1.bf487fcb923a2p-2
1756=-0x1.bf487fcb923a2p-2
1757=-0x1.bf487fcb923a2p-2
1759=-0x1.bf487fcb923a2p-2
1760=-0x1.bf487fcb923a2p-2
1761=-0x1.bf487fcb923a2p-2
1762=-0x1.bf487fcb923a2p-2
1763=-0x1.bf487fcb923a2p-2
1764=0x1.eb851eb851eb8p-4
1765=-0x1.bf487fcb923a2p-2
1766=-0x1.bf487fcb923a2p-2
1767=-0x1.49cf56eac8605p-1
1768=-0x1.bf487fcb923a2p-2
1769=-0x1.bf487fcb923a2p-2
1770=-0x1.bf487fcb923a2p-2
1771=-0x1.bf487fcb923a2p-2
1772=-0x1.bf487fcb923a2p-2
1773=-0x1.bf487fcb923a2p-2
1774=-0x1.bf487fcb923a2p-2
1775=0x1.78811b1d92b8p-2
1777=-0x1.bf487fcb923a2p-2
1778=-0x1.bf487fcb923a2p-2
1779=-0x1.bf487fcb923a2p-2
1780=-0x1.bf487fcb923a2p-2
1781=-0x1.bf487fcb923a2p-2
1782=0x1.eb851eb851eb8p-4
1783=0x1.21ff2e48e8a72p-3
1784=-0x1.bf487fcb923a2p-2
1785=-0x1.bf487fcb923a2p-2
1790=-0x1.bf487fcb923a2p-2
1791=-0x1.bf487fcb923a2p-2
1792=-0x1.bf487fcb923a2p-2
1793=-0x1.49cf56eac8605p-1
1794=-0x1.bf487fcb923a2p-2
1795=-0x1.bf487fcb923a2p-2
1796=-0x1.bf487fcb923a2p-2
1797=-0x1.bf487fcb923a2p-2
1798=-0x1.bf487fcb923a2p-2
1799=-0x1.bf487fcb923a2p-2
1800=0x1.78811b1d92b8p-2
1801=-0x1.bf487fcb923a2p-2
1802=-0x1.bf487fcb923a2p-2
1803=-0x1.bf487fcb923a2p-2
1804=-0x1.bf487fcb923a2p-2
1805=0x1.eb851eb851eb8p-4
1806=-0x1.bf487fcb923a2p-2
1807=-0x1.bf487fcb923a2p-2
1809=-0x1.bf487fcb923a2p-2
1810=-0x1.bf487fcb923a2p-2
1811=-0x1.bf487fcb923a2p-2
1812=-0x1.bf487fcb923a2p-2
1814=-0x1.bf487fcb923a2p-2
1817=-0x1.bf487fcb923a2p-2
1818=-0x1.bf487fcb923a2p-2
1819=-0x1.bf487fcb923a2p-2
1820=-0x1.bf487fcb923a2p-2
1821=-0x1.bf487fcb923a2p-2
1822=-0x1.bf487fcb923a2p-2
1823=-0x1.bf487fcb923a2p-2
1824=-0x1.bf487fcb923a2p-2
1825=-0x1.bf487fcb923a2p-2
1826=-0x1.bf487fcb923a2p-2
1827=0x1.26e978d4fdf3bp-4
1828=-0x1.bf487fcb923a2p-2
1829=0x1.1be6e653868fcp-2
1830=-0x1.bf487fcb923a2p-2
1831=-0x1.bf487fcb923a2p-2
1832=-0x1.bf487fcb923a2p-2
1833=-0x1.bf487fcb923a2p-2
1835=-0x1.bf487fcb923a2p-2
1836=-0x1.bf487fcb923a2p-2
1837=-0x1.bf487fcb923a2p-2
1838=-0x1.bf487fcb923a2p-2
1839=-0x1.bf487fcb923a2p-2
1840=-0x1.bf487fcb923a2p-2
1841=-0x1.bf487fcb923a2p-2
1842=-0x1.bf487fcb923a2p-2
1843=-0x1.bf487fcb923a2p-2
1844=-0x1.bf487fcb923a2p-2
1846=-0x1.bf487fcb923a2p-2
1847=-0x1.bf487fcb923a2p-2
1848=-0x1.bf487fcb923a2p-2
1849=-0x1.bf487fcb923a2p-2
1850=0x1.eb851eb851eb8p-4
1852=-0x1.bf487fcb923a2p-2
1853=-0x1.bf487fcb923a2p-2
1854=-0x1.bf487fcb923a2p-2
1855=0x1.eb851eb851eb8p-4
1856=-0x1.bf487fcb923a2p-2
1857=-0x1.bf487fcb923a2p-2
1858=-0x1.bf487fcb923a2p-2
1859=-0x1.bf487fcb923a2p-2
1860=0x1.bf487fcb923a2p-2
1861=-0x1.bf487fcb923a2p-2
1862=-0x1.49cf56eac8605p-1
1863=-0x1.bf487fcb923a2p-2
1864=-0x1.bf487fcb923a2p-2
1865=-0x1.bf487fcb923a2p-2
1866=-0x1.bf487fcb923a2p-2
1868=-0x1.bf487fcb923a2p-2
1869=-0x1.bf487fcb923a2p-2
1870=-0x1.bf487fcb923a2p-2
1871=-0x1.bf487fcb923a2p-2
1872=-0x1.bf487fcb923a2p-2
1873=-0x1.bf487fcb923a2p-2
1874=-0x1.bf487fcb923a2p-2
1875=-0x1.bf487fcb923a2p-2
1876=0x1.130df9bdc69f8p-2
1877=-0x1.bf487fcb923a2p-2
1878=0x1.12787d952c219p+0
1879=-0x1.bf487fcb923a2p-2
1880=-0x1.49cf56eac8605p-1
1882=0x1.eb851eb851eb8p-4
1883=-0x1.bf487fcb923a2p-2
1884=-0x1.bf487fcb923a2p-2
1885=0x1.bf487fcb923a2p-2
1886=-0x1.49cf56eac8605p-1
1887=-0x1.bf487fcb923a2p-2
1888=-0x1.bf487fcb923a2p-2
1889=-0x1.bf487fcb923a2p-2
1890=-0x1.bf487fcb923a2p-2
1891=-0x1.bf487fcb923a2p-2
1892=0x1.1f57b41bfbdfp-1
1893=-0x1.bf487fcb923a2p-2
1894=-0x1.bf487fcb923a2p-2
1895=-0x1.49cf56eac8605p-1
1896=-0x1.bf487fcb923a2p-2
1897=0x1.eb851eb851eb8p-4
1898=-0x1.bf487fcb923a2p-2
1899=-0x1.bf487fcb923a2p-2
1900=-0x1.bf487fcb923a2p-2
1901=-0x1.bf487fcb923a2p-2
1902=-0x1.bf487fcb923a2p-2
1903=-0x1.bf487fcb923a2p-2
1904=-0x1.bf487fcb923a2p-2
1905=-0x1.bf487fcb923a2p-2
1906=-0x1.bf487fcb923a2p-2
1907=-0x1.bf487fcb923a2p-2
1909=-0x1.bf487fcb923a2p-2
1910=-0x1.bf487fcb923a2p-2
1911=-0x1.bf487fcb923a2p-2
1912=-0x1.bf487fcb923a2p-2
1913=-0x1.bf487fcb923a2p-2
1914=-0x1.bf487fcb923a2p-2
1915=-0x1.bf487fcb923a2p-2
1916=-0x1.bf487fcb923a2p-2
1918=-0x1.bf487fcb923a2p-2
1919=-0x1.bf487fcb923a2p-2
1920=-0x1.bf487fcb923a2p-2
1921=-0x1.bf487fcb923a2p-2
1922=-0x1.bf487fcb923a2p-2
1923=-0x1.bf487fcb923a2p-2
1924=-0x1.bf487fcb923a2p-2
1925=0x1.c78361c9c98d1p-1
1926=-0x1.bf487fcb923a2p-2
1927=-0x1.bf487fcb923a2p-2
1928=-0x1.bf487fcb923a2p-2
1930=-0x1.bf487fcb923a2p-2
1931=0x1.eb851eb851eb8p-4
1932=0x1.eb851eb851eb8p-4
1933=0x1.eb851eb851eb8p-4
1934=0x1.eb851eb851eb8p-4
1935=-0x1.bf487fcb923a2p-2
1936=-0x1.bf487fcb923a2p-2
1937=-0x1.bf487fcb923a2p-2
1938=0x1.bcec84f8f8a4bp-2
1939=0x1.4e3bcd35a8587p-3
1940=-0x1.49cf56eac8605p-1
1941=0x1.a6b50b0f27bb2p-3
1942=-0x1.bf487fcb923a2p-2
1944=-0x1.bf487fcb923a2p-2
1945=0x1.fefbf401c4fc1p-2
1946=-0x1.bf487fcb923a2p-2
1947=-0x1.bf487fcb923a2p-2
1948=0x1.eb851eb851eb8p-4
1950=-0x1.bf487fcb923a2p-2
1951=-0x1.bf487fcb923a2p-2
1952=-0x1.bf487fcb923a2p-2
1953=-0x1.bf487fcb923a2p-2
1954=-0x1.bf487fcb923a2p-2
1955=-0x1.bf487fcb923a2p-2
1956=-0x1.bf487fcb923a2p-2
1957=-0x1.bf487fcb923a2p-2
1958=0x1.21ff2e48e8a72p-3
1959=-0x1.bf487fcb923a2p-2
1960=-0x1.bf487fcb923a2p-2
1961=-0x1.bf487fcb923a2p-2
1963=-0x1.bf487fcb923a2p-2
1964=0x1.3d859c8c9320dp-2
1965=-0x1.bf487fcb923a2p-2
1967=-0x1.bf487fcb923a2p-2
1968=-0x1.bf487fcb923a2p-2
1971=-0x1.bf487fcb923a2p-2
1973=-0x1.bf487fcb923a2p-2
1974=-0x1.bf487fcb923a2p-2
1975=-0x1.49cf56eac8605p-1
1976=-0x1.bf487fcb923a2p-2
1977=-0x1.bf487fcb923a2p-2
1978=-0x1.bf487fcb923a2p-2
1979=-0x1.bf487fcb923a2p-2
1980=0x1.21ff2e48e8a72p-3
1982=-0x1.bf487fcb923a2p-2
1983=-0x1.bf487fcb923a2p-2
1985=0x1.eb851eb851eb8p-4
1986=-0x1.bf487fcb923a2p-2
1987=-0x1.bf487fcb923a2p-2
1989=-0x1.bf487fcb923a2p-2
1990=-0x1.bf487fcb923a2p-2
1991=-0x1.bf487fcb923a2p-2
1992=-0x1.bf487fcb923a2p-2
1993=-0x1.bf487fcb923a2p-2
1994=0x1.bcec84f8f8a4bp-2
1995=-0x1.bf487fcb923a2p-2
1997=-0x1.bf487fcb923a2p-2
1998=-0x1.bf487fcb923a2p-2
1999=-0x1.bf487fcb923a2p-2
2000=-0x1.bf487fcb923a2p-2
2002=-0x1.bf487fcb923a2p-2
2003=-0x1.bf487fcb923a2p-2
2004=-0x1.bf487fcb923a2p-2
2005=0x1.6d7b838403854p-1
2006=-0x1.bf487fcb923a2p-2
2007=-0x1.bf487fcb923a2p-2
2008=-0x1.bf487fcb923a2p-2
2009=-0x1.bf487fcb923a2p-2
2010=-0x1.bf487fcb923a2p-2
2011=-0x1.bf487fcb923a2p-2
2013=-0x1.bf487fcb923a2p-2
2015=-0x1.bf487fcb923a2p-2
2017=-0x1.bf487fcb923a2p-2
2018=-0x1.bf487fcb923a2p-2
2020=-0x1.bf487fcb923a2p-2
2021=-0x1.bf487fcb923a2p-2
2024=-0x1.bf487fcb923a2p-2
2025=0x1.eb851eb851eb8p-4
2026=-0x1.bf487fcb923a2p-2
2027=-0x1.bf487fcb923a2p-2
2028=-0x1.bf487fcb923a2p-2
2029=-0x1.bf487fcb923a2p-2
2030=-0x1.bf487fcb923a2p-2
2032=-0x1.bf487fcb923a2p-2
2033=-0x1.bf487fcb923a2p-2
2034=-0x1.bf487fcb923a2p-2
2036=-0x1.bf487fcb923a2p-2
2038=0x1.eb851eb851eb8p-4
2039=-0x1.bf487fcb923a2p-2
2040=-0x1.bf487fcb923a2p-2
2041=0x1.eb851eb851eb8p-4
2042=0x1.eb851eb851eb8p-4
2043=-0x1.bf487fcb923a2p-2
2044=-0x1.bf487fcb923a2p-2
2045=-0x1.bf487fcb923a2p-2
2046=-0x1.bf487fcb923a2p-2
2047=-0x1.bf487fcb923a2p-2
2048=-0x1.bf487fcb923a2p-2
2049=-0x1.bf487fcb923a2p-2
2050=-0x1.bf487fcb923a2p-2
2051=-0x1.bf487fcb923a2p-2
2052=-0x1.bf487fcb923a2p-2
2053=-0x1.bf487fcb923a2p-2
2054=-0x1.bf487fcb923a2p-2
2055=-0x1.bf487fcb923a2p-2
2056=-0x1.bf487fcb923a2p-2
2057=-0x1.bf487fcb923a2p-2
2058=-0x1.bf487fcb923a2p-2
2059=0x1.26e978d4fdf3bp-4
2060=0x1.eb851eb851eb8p-4
2062=-0x1.bf487fcb923a2p-2
2063=-0x1.bf487fcb923a2p-2
2065=-0x1.bf487fcb923a2p-2
2066=0x1.21ff2e48e8a72p-3
2067=-0x1.bf487fcb923a2p-2
2068=-0x1.bf487fcb923a2p-2
2069=-0x1.bf487fcb923a2p-2
2070=-0x1.bf487fcb923a2p-2
2071=-0x1.bf487fcb923a2p-2
2072=-0x1.bf487fcb923a2p-2
2073=-0x1.bf487fcb923a2p-2
2074=-0x1.bf487fcb923a2p-2
2075=-0x1.bf487fcb923a2p-2
2077=-0x1.bf487fcb923a2p-2
2078=-0x1.eb851eb851eb8p-4
2080=-0x1.bf487fcb923a2p-2
2081=-0x1.bf487fcb923a2p-2
2082=-0x1.bf487fcb923a2p-2
2083=-0x1.bf487fcb923a2p-2
2084=-0x1.bf487fcb923a2p-2
2085=-0x1.49cf56eac8605p-1
2086=-0x1.bf487fcb923a2p-2
2087=-0x1.bf487fcb923a2p-2
2088=-0x1.bf487fcb923a2p-2
2089=-0x1.bf487fcb923a2p-2
2090=-0x1.bf487fcb923a2p-2
2091=-0x1.49cf56eac8605p-1
2092=-0x1.bf487fcb923a2p-2
2093=-0x1.bf487fcb923a2p-2
2094=-0x1.bf487fcb923a2p-2
2095=-0x1.bf487fcb923a2p-2
2096=-0x1.bf487fcb923a2p-2
2097=-0x1.bf487fcb923a2p-2
2098=-0x1.bf487fcb923a2p-2
2099=-0x1.bf487fcb923a2p-2
2100=-0x1.bf487fcb923a2p-2
2101=0x1.eb851eb851eb8p-5
2102=-0x1.bf487fcb923a2p-2
2103=-0x1.bf487fcb923a2p-2
2104=-0x1.bf487fcb923a2p-2
2105=-0x1.bf487fcb923a2p-2
2106=-0x1.bf487fcb923a2p-2
2107=-0x1.bf487fcb923a2p-2
2108=0x1.df548ecd8dbcep-3
2109=-0x1.bf487fcb923a2p-2
2110=0x1.1be6e653868fcp-2
2111=0x1.1be6e653868fcp-2
2112=0x1.eb851eb851eb8p-4
2113=-0x1.bf487fcb923a2p-2
2114=-0x1.bf487fcb923a2p-2
2115=-0x1.bf487fcb923a2p-2
2116=-0x1.bf487fcb923a2p-2
2117=-0x1.bf487fcb923a2p-2
2118=-0x1.bf487fcb923a2p-2
2119=0x1.eb851eb851eb8p-4
2120=-0x1.bf487fcb923a2p-2
2121=-0x1.bf487fcb923a2p-2
2123=-0x1.bf487fcb923a2p-2
2124=-0x1.bf487fcb923a2p-2
2125=-0x1.bf487fcb923a2p-2
2127=-0x1.bf487fcb923a2p-2
2128=-0x1.bf487fcb923a2p-2
2129=-0x1.bf487fcb923a2p-2
2130=-0x1.bf487fcb923a2p-2
2131=-0x1.bf487fcb923a2p-2
2133=-0x1.bf487fcb923a2p-2
2134=-0x1.bf487fcb923a2p-2
2135=-0x1.bf487fcb923a2p-2
2136=-0x1.bf487fcb923a2p-2
2137=-0x1.bf487fcb923a2p-2
2138=-0x1.bf487fcb923a2p-2
2139=-0x1.bf487fcb923a2p-2
2140=0x1.3d859c8c9320dp-2
2141=-0x1.bf487fcb923a2p-2
2142=0x1.4e3bcd35a8587p-3
2143=-0x1.bf487fcb923a2p-2
2144=-0x1.bf487fcb923a2p-2
2145=-0x1.bf487fcb923a2p-2
2147=-0x1.bf487fcb923a2p-2
2148=-0x1.bf487fcb923a2p-2
2149=-0x1.bf487fcb923a2p-2
2150=0x1.bf487fcb923a2p-2
2151=-0x1.bf487fcb923a2p-2
2153=-0x1.bf487fcb923a2p-2
2154=-0x1.bf487fcb923a2p-2
2155=-0x1.bf487fcb923a2p-2
2156=-0x1.bf487fcb923a2p-2
2157=-0x1.bf487fcb923a2p-2
2158=-0x1.bf487fcb923a2p-2
2159=-0x1.bf487fcb923a2p-2
2161=-0x1.bf487fcb923a2p-2
2162=0x1.eb851eb851eb8p-4
2163=-0x1.bf487fcb923a2p-2
2164=-0x1.bf487fcb923a2p-2
2165=-0x1.bf487fcb923a2p-2
2166=-0x1.bf487fcb923a2p-2
2167=-0x1.bf487fcb923a2p-2
2168=-0x1.bf487fcb923a2p-2
2169=-0x1.bf487fcb923a2p-2
2170=-0x1.bf487fcb923a2p-2
2171=-0x1.bf487fcb923a2p-2
2172=-0x1.bf487fcb923a2p-2
2174=-0x1.bf487fcb923a2p-2
2175=-0x1.bf487fcb923a2p-2
2176=-0x1.bf487fcb923a2p-2
2177=-0x1.bf487fcb923a2p-2
2178=-0x1.bf487fcb923a2p-2
2179=0x1.1be6e653868fcp-2
2180=-0x1.bf487fcb923a2p-2
2182=-0x1.bf487fcb923a2p-2
2183=-0x1.bf487fcb923a2p-2
2186=-0x1.bf487fcb923a2p-2
2187=-0x1.bf487fcb923a2p-2
2188=-0x1.bf487fcb923a2p-2
2189=-0x1.bf487fcb923a2p-2
2190=-0x1.bf487fcb923a2p-2
2191=-0x1.bf487fcb923a2p-2
2192=-0x1.bf487fcb923a2p-2
2193=-0x1.bf487fcb923a2p-2
2194=-0x1.bf487fcb923a2p-2
2195=-0x1.bf487fcb923a2p-2
2197=-0x1.bf487fcb923a2p-2
2198=-0x1.bf487fcb923a2p-2
2199=-0x1.bf487fcb923a2p-2
2200=-0x1.bf487fcb923a2p-2
2201=-0x1.bf487fcb923a2p-2
2202=-0x1.bf487fcb923a2p-2
2203=-0x1.bf487fcb923a2p-2
2204=-0x1.bf487fcb923a2p-2
2205=-0x1.bf487fcb923a2p-2
2206=-0x1.bf487fcb923a2p-2
2207=-0x1.bf487fcb923a2p-2
2208=-0x1.bf487fcb923a2p-2
2209=-0x1.bf487fcb923a2p-2
2210=-0x1.bf487fcb923a2p-2
2211=-0x1.bf487fcb923a2p-2
2212=-0x1.bf487fcb923a2p-2
2213=-0x1.bf487fcb923a2p-2
2214=-0x1.bf487fcb923a2p-2
2215=-0x1.bf487fcb923a2p-2
2216=-0x1.bf487fcb923a2p-2
2217=-0x1.bf487fcb923a2p-2
2218=-0x1.bf487fcb923a2p-2
2219=-0x1.bf487fcb923a2p-2
2220=-0x1.bf487fcb923a2p-2
2221=-0x1.bf487fcb923a2p-2
2222=-0x1.bf487fcb923a2p-2
2223=-0x1.bf487fcb923a2p-2
2224=-0x1.bf487fcb923a2p-2
2225=-0x1.bf487fcb923a2p-2
2226=-0x1.bf487fcb923a2p-2
2227=-0x1.bf487fcb923a2p-2
2228=-0x1.bf487fcb923a2p-2
2229=-0x1.bf487fcb923a2p-2
2230=-0x1.bf487fcb923a2p-2
2231=-0x1.bf487fcb923a2p-2
2232=-0x1.bf487fcb923a2p-2
2233=-0x1.bf487fcb923a2p-2
2234=-0x1.bf487fcb923a2p-2
2235=-0x1.bf487fcb923a2p-2
2237=-0x1.bf487fcb923a2p-2
2238=-0x1.bf487fcb923a2p-2
2239=-0x1.bf487fcb923a2p-2
2240=-0x1.bf487fcb923a2p-2
2241=-0x1.bf487fcb923a2p-2
2242=-0x1.bf487fcb923a2p-2
2243=-0x1.bf487fcb923a2p-2
2244=-0x1.bf487fcb923a2p-2
2245=-0x1.bf487fcb923a2p-2
2246=-0x1.bf487fcb923a2p-2
2247=-0x1.bf487fcb923a2p-2
2248=-0x1.bf487fcb923a2p-2
2251=-0x1.bf487fcb923a2p-2
2253=-0x1.bf487fcb923a2p-2
2254=-0x1.bf487fcb923a2p-2
2255=-0x1.bf487fcb923a2p-2
2256=-0x1.bf487fcb923a2p-2
2258=-0x1.bf487fcb923a2p-2
2259=-0x1.bf487fcb923a2p-2
2260=-0x1.bf487fcb923a2p-2
2261=-0x1.bf487fcb923a2p-2
2262=-0x1.bf487fcb923a2p-2
2263=-0x1.bf487fcb923a2p-2
2264=-0x1.bf487fcb923a2p-2
2265=-0x1.bf487fcb923a2p-2
2266=-0x1.bf487fcb923a2p-2
2267=-0x1.bf487fcb923a2p-2
2268=-0x1.bf487fcb923a2p-2
2269=-0x1.bf487fcb923a2p-2
2270=-0x1.bf487fcb923a2p-2
2273=-0x1.bf487fcb923a2p-2
2274=-0x1.bf487fcb923a2p-2
2276=-0x1.bf487fcb923a2p-2
2277=-0x1.bf487fcb923a2p-2
2278=-0x1.bf487fcb923a2p-2
2279=-0x1.bf487fcb923a2p-2
2280=-0x1.bf487fcb923a2p-2
2281=-0x1.bf487fcb923a2p-2
2282=-0x1.bf487fcb923a2p-2
2283=-0x1.bf487fcb923a2p-2
2284=-0x1.bf487fcb923a2p-2
2285=-0x1.bf487fcb923a2p-2
2286=-0x1.bf487fcb923a2p-2
2287=-0x1.bf487fcb923a2p-2
2288=-0x1.bf487fcb923a2p-2
2289=-0x1.bf487fcb923a2p-2
2290=-0x1.bf487fcb923a2p-2
2291=-0x1.bf487fcb923a2p-2
2292=-0x1.bf487fcb923a2p-2
2293=-0x1.bf487fcb923a2p-2
2294=-0x1.bf487fcb923a2p-2
2295=-0x1.bf487fcb923a2p-2
2297=-0x1.bf487fcb923a2p-2
2299=-0x1.bf487fcb923a2p-2
2300=-0x1.bf487fcb923a2p-2
2301=-0x1.bf487fcb923a2p-2
2302=-0x1.bf487fcb923a2p-2
2304=0x1.0e5604189374cp-2
2305=-0x1.bf487fcb923a2p-2
2306=-0x1.bf487fcb923a2p-2
2307=-0x1.bf487fcb923a2p-2
2308=-0x1.bf487fcb923a2p-2
2309=-0x1.bf487fcb923a2p-2
2310=-0x1.bf487fcb923a2p-2
2311=-0x1.bf487fcb923a2p-2
2312=-0x1.bf487fcb923a2p-2
2313=-0x1.bf487fcb923a2p-2
2314=-0x1.bf487fcb923a2p-2
2315=0x1.bf487fcb923a2p-2
2316=-0x1.bf487fcb923a2p-2
2317=-0x1.bf487fcb923a2p-2
2318=-0x1.bf487fcb923a2p-2
2319=-0x1.bf487fcb923a2p-2
2320=-0x1.bf487fcb923a2p-2
2321=-0x1.bf487fcb923a2p-2
2322=-0x1.bf487fcb923a2p-2
2323=0x1.21ff2e48e8a72p-3
2324=-0x1.bf487fcb923a2p-2
2325=-0x1.bf487fcb923a2p-2
2326=-0x1.bf487fcb923a2p-2
2327=-0x1.bf487fcb923a2p-2
2328=-0x1.bf487fcb923a2p-2
2329=-0x1.bf487fcb923a2p-2
2330=-0x1.bf487fcb923a2p-2
2331=-0x1.bf487fcb923a2p-2
2332=-0x1.bf487fcb923a2p-2
2333=-0x1.bf487fcb923a2p-2
2334=-0x1.bf487fcb923a2p-2
2335=0x1.bf487fcb923a2p-2
2336=-0x1.bf487fcb923a2p-2
2337=-0x1.bf487fcb923a2p-2
2338=-0x1.bf487fcb923a2p-2
2339=-0x1.bf487fcb923a2p-2
2340=-0x1.bf487fcb923a2p-2
2341=-0x1.bf487fcb923a2p-2
2342=-0x1.bf487fcb923a2p-2
2343=-0x1.bf487fcb923a2p-2
2344=-0x1.bf487fcb923a2p-2
2345=-0x1.bf487fcb923a2p-2
2346=0x1.eb851eb851eb8p-4
2347=-0x1.bf487fcb923a2p-2
2348=-0x1.bf487fcb923a2p-2
2349=-0x1.bf487fcb923a2p-2
2350=-0x1.bf487fcb923a2p-2
2351=-0x1.bf487fcb923a2p-2
2352=-0x1.bf487fcb923a2p-2
2353=-0x1.bf487fcb923a2p-2
2354=0x1.0e5604189374cp-2
2357=0x1.310c11863a414p+0
2359=0x1.3f789c0b1d714p+1
2360=0x1.c78361c9c98d1p-1
2369=0x1.0e5604189374cp-2
2372=0x1.12787d952c219p+0
2383=0x1.0e5604189374cp-2
2385=-0x1.eb851eb851eb8p-4
2398=0x1.310c11863a414p+0
2402=0x1.bf487fcb923a2p-2
2431=0x1.3f789c0b1d714p+1
2456=0x1.0e5604189374cp-2
2484=0x1.bf487fcb923a2p-2
2487=0x1.a41faf72c9ccp-1
2491=0x1.49cf56eac8605p-1
2524=0x1.8cc6cd5964a03p+0
2558=0x1.c9363f572de43p-1
2573=0x1.3f789c0b1d714p+1
2624=0x1.bf487fcb923a2p-2
2649=0x1.0e5604189374cp-2
2775=0x1.49cf56eac8605p-1
2992=0x1.310c11863a414p+0
3214=0x1.c9363f572de43p-1
3531=0x1.0e5604189374cp-2
3536=0x1.3f789c0b1d714p+1
3537=0x1.f1fb0498960e6p-1
3538=0x1.c9363f572de43p-1
3560=0x1.49cf56eac8605p-1
3575=0x1.49cf56eac8605p-1
3579=0x1.bf487fcb923a2p-2
3633=0x1.c9363f572de43p-1
3661=0x1.bf487fcb923a2p-2
3668=0x1.c9363f572de43p-1
3701=0x1.8cc6cd5964a03p+0
3750=0x1.3f789c0b1d714p+1
4708=0x1.0e5604189374cp-2
4713=0x1.c9363f572de43p-1
4715=0x1.49cf56eac8605p-1
4726=0x1.12787d952c219p+0
4735=0x1.fefbf401c4fc1p-2
4752=0x1.310c11863a414p+0
4785=-0x1.eb851eb851eb8p-4
4952=0x1.4e09784ec636bp-2
5306=0x1.0e5604189374cp-2
5668=0x1.12787d952c219p+0
5698=0x1.1f57b41bfbdfp-1
5885=0x1.0e5604189374cp-2
5890=0x1.bf487fcb923a2p-2
5903=0x1.3f789c0b1d714p+1
5929=0x1.3f789c0b1d714p+1
7062=0x1.8cc6cd5964a03p+0
7067=0x1.7f950b955f783p-2
7068=0x1.f1fb0498960e6p-1
7069=0x1.49cf56eac8605p-1
7073=0x1.12787d952c219p+0
7074=0x1.49cf56eac8605p-1
7075=0x1.c9363f572de43p-1
7079=0x1.c9363f572de43p-1
7088=0x1.c9363f572de43p-1
7094=0x1.49cf56eac8605p-1
7095=0x1.bf487fcb923a2p-2
7096=0x1.8cc6cd5964a03p+0
7103=0x1.c9363f572de43p-1
7106=-0x1.eb851eb851eb8p-4
7115=0x1.310c11863a414p+0
7118=0x1.0e5604189374cp-2
7122=0x1.8cc6cd5964a03p+0
7162=0x1.7f950b955f783p-2
7167=0x1.c9363f572de43p-1
7199=0x1.bf487fcb923a2p-2
7204=-0x1.eb851eb851eb8p-4
7229=0x1.310c11863a414p+0
7237=0x1.49cf56eac8605p-1
7238=0x1.49cf56eac8605p-1
7320=0x1.c9363f572de43p-1
7322=0x1.fefbf401c4fc1p-2
7326=0x1.310c11863a414p+0
7360=0x1.49cf56eac8605p-1
7376=0x1.3f789c0b1d714p+1
7537=0x1.12787d952c219p+0
7618=0x1.3f789c0b1d714p+1
7659=0x1.310c11863a414p+0
7660=0x1.c9363f572de43p-1
7674=0x1.12787d952c219p+0
7719=0x1.1f57b41bfbdfp-1
7744=0x1.f1fb0498960e6p-1
7838=0x1.bf487fcb923a2p-2
7839=0x1.bf487fcb923a2p-2
7840=0x1.bf487fcb923a2p-2
7841=0x1.bf487fcb923a2p-2
7842=0x1.bf487fcb923a2p-2
7857=0x1.f1fb0498960e6p-1
7910=0x1.bf487fcb923a2p-2
7917=0x1.f1fb0498960e6p-1
7949=0x1.310c11863a414p+0
8007=0x1.49cf56eac8605p-1
8091=0x1.3f789c0b1d714p+1
8134=0x1.1f57b41bfbdfp-1
8135=0x1.1f57b41bfbdfp-1
8155=0x1.f1fb0498960e6p-1
8239=0x1.3f789c0b1d714p+1
8283=-0x1.eb851eb851eb8p-4
8956=0x1.8cc6cd5964a03p+0
9199=0x1.12787d952c219p+0
9416=0x1.8cc6cd5964a03p+0
9420=0x1.26e978d4fdf3bp-4
9421=0x1.12787d952c219p+0
9423=-0x1.0e5604189374cp-2
9428=-0x1.eb851eb851eb8p-4
9429=0x1.0e5604189374cp-2
9430=0x1.310c11863a414p+0
9436=0x1.0e5604189374cp-2
9438=-0x1.eb851eb851eb8p-4
9439=-0x1.eb851eb851eb8p-4
9440=-0x1.eb851eb851eb8p-4
9441=-0x1.eb851eb851eb8p-4
9445=0x1.3f789c0b1d714p+1
9448=0x1.8cc6cd5964a03p+0
9449=0x1.49cf56eac8605p-1
9450=0x1.12787d952c219p+0
9451=0x1.130df9bdc69f8p-2
9456=0x1.0e5604189374cp-2
9460=0x1.49cf56eac8605p-1
9461=0x1.12787d952c219p+0
9462=0x1.bf487fcb923a2p-2
9463=-0x1.eb851eb851eb8p-4
9467=0x1.49cf56eac8605p-1
9469=0x1.1f57b41bfbdfp-1
9471=0x1.3f789c0b1d714p+1
9472=0x1.12787d952c219p+0
9474=-0x1.eb851eb851eb8p-4
9475=0x1.9d451fc4c165ap-3
9477=0x1.331a08bfc2226p-3
9480=0x1.fefbf401c4fc1p-2
9487=0x1.a41faf72c9ccp-1
9489=0x1.8cc6cd5964a03p+0
9493=-0x1.eb851eb851eb8p-4
9494=0x1.43475279f5648p-2
9496=0x1.26e978d4fdf3bp-4
9498=0x1.bf487fcb923a2p-2
9506=0x1.c3ce2089e3432p-3
9511=-0x1.0e5604189374cp-2
9512=-0x1.eb851eb851eb8p-4
9513=0x1.8611fd5885d4p-8
9515=0x1.f1fb0498960e6p-1
9516=0x1.49cf56eac8605p-1
9519=-0x1.eb851eb851eb8p-4
9522=0x1.310c11863a414p+0
9525=0x1.26e978d4fdf3bp-4
9526=0x1.49cf56eac8605p-1
9532=0x1.3d859c8c9320dp-2
9533=-0x1.bf487fcb923a2p-2
9534=-0x1.2ae734571fa18p-1
9537=-0x1.eb851eb851eb8p-4
9538=0x1.8cc6cd5964a03p+0
9545=-0x1.eb851eb851eb8p-4
9547=0x1.310c11863a414p+0
9549=-0x1.bf487fcb923a2p-2
9553=0x1.26e978d4fdf3bp-4
9558=0x1.8cc6cd5964a03p+0
9560=0x1.26e978d4fdf3bp-5
9561=-0x1.0e5604189374cp-2
9565=0x1.274e22a2c2374p-3
9567=0x1.bf487fcb923a2p-2
9574=0x1.f1fb0498960e6p-1
9591=-0x1.eb851eb851eb8p-4
9592=0x1.4467381d7dbf4p-4
9596=0x1.310c11863a414p+0
9597=0x1.12787d952c219p+0
9598=0x1.3f789c0b1d714p+1
9602=0x1.7f950b955f783p-2
9604=0x1.12787d952c219p+0
9606=0x1.21ff2e48e8a72p-3
9607=0x1.21ff2e48e8a72p-3
9608=0x1.21ff2e48e8a72p-3
9609=0x1.8cc6cd5964a03p+0
9610=0x1.49cf56eac8605p-1
9611=0x1.8cc6cd5964a03p+0
9612=0x1.310c11863a414p+0
9614=0x1.f7e80389f83bep-2
9630=0x1.a6b50b0f27bb2p-3
9635=0x1.3f789c0b1d714p+1
9636=0x1.4e3bcd35a8587p-3
9640=-0x1.eb851eb851eb8p-4
9641=0x1.bcec84f8f8a4bp-2
9643=0x1.26e978d4fdf3bp-5
9645=0x1.310c11863a414p+0
9646=-0x1.eb851eb851eb8p-4
9650=0x1.310c11863a414p+0
9660=0x1.4467381d7dbf4p-3
9662=0x1.310c11863a414p+0
9663=0x1.bf487fcb923a2p-2
9675=0x1.49cf56eac8605p-1
9676=0x1.3f789c0b1d714p+1
9679=0x1.bf487fcb923a2p-2
9686=0x1.49cf56eac8605p-1
9693=0x1.8cc6cd5964a03p+0
9695=0x1.a6b50b0f27bb2p-3
9703=0x1.1f57b41bfbdfp-1
9713=0x1.0e5604189374cp-2
9728=0x1.7d06bbdbe3c0fp-3
9733=0x1.f1fb0498960e6p-1
9736=0x1.8cc6cd5964a03p+0
9749=0x1.eb851eb851eb8p-4
9759=0x1.1f57b41bfbdfp-1
9769=0x1.26e978d4fdf3bp-5
9772=0x1.a6b50b0f27bb2p-3
9781=0x1.eb851eb851eb8p-4
9802=0x1.3f789c0b1d714p+1
9824=0x1.4e09784ec636bp-2
9835=0x1.78811b1d92b8p-2
9838=0x1.310c11863a414p+0
9844=0x1.1be6e653868fcp-2
9845=0x1.4e09784ec636bp-2
9849=0x1.86a1f02a4a007p-1
9865=0x1.3d859c8c9320dp-2
9875=0x1.86a1f02a4a007p-1
9879=0x1.c9363f572de43p-1
9891=-0x1.0e5604189374cp-2
9913=0x1.130df9bdc69f8p-2
9914=0x1.3d859c8c9320dp-2
9919=0x1.310c11863a414p+0
9937=0x1.a41faf72c9ccp-1
9948=0x1.4467381d7dbf4p-3
9950=0x1.26e978d4fdf3bp-4
9952=0x1.310c11863a414p+0
9977=0x1.7d06bbdbe3c0fp-3
9978=0x1.eb851eb851eb8p-4
9993=0x1.49cf56eac8605p-1
10006=0x1.6e0e7b6ddf817p-1
10036=0x1.12787d952c219p+0
10037=0x1.3f789c0b1d714p+1
10039=0x1.8cc6cd5964a03p+0
10044=0x1.130df9bdc69f8p-2
10052=0x1.8cc6cd5964a03p+0
10063=0x1.3f789c0b1d714p+1
10066=0x1.86a1f02a4a007p-1
10068=0x1.1be6e653868fcp-2
10099=0x1.86a1f02a4a007p-1
10104=0x1.831f03d145d85p-2
10105=0x1.8cc6cd5964a03p+0
10112=0x1.a41faf72c9ccp-1
10113=0x1.eb851eb851eb8p-4
10114=0x1.eb851eb851eb8p-4
10120=0x1.a6b50b0f27bb2p-3
10134=0x1.310c11863a414p+0
10146=0x1.3d859c8c9320dp-2
10151=0x1.3f789c0b1d714p+1
10161=0x1.130df9bdc69f8p-2
10164=0x1.310c11863a414p+0
10178=0x1.1f57b41bfbdfp-1
10191=0x1.3d859c8c9320dp-2
10192=0x1.21ff2e48e8a72p-3
10193=0x1.21ff2e48e8a72p-3
10194=0x1.21ff2e48e8a72p-3
10195=0x1.21ff2e48e8a72p-3
10196=0x1.21ff2e48e8a72p-3
10213=0x1.a6b50b0f27bb2p-3
10217=0x1.130df9bdc69f8p-2
10235=0x1.c78361c9c98d1p-1
10262=0x1.130df9bdc69f8p-2
10264=0x1.49cf56eac8605p-1
10267=0x1.eb851eb851eb8p-4
10268=0x1.eb851eb851eb8p-4
10269=0x1.eb851eb851eb8p-4
10270=0x1.eb851eb851eb8p-4
10271=0x1.eb851eb851eb8p-4
10279=0x1.a6b50b0f27bb2p-3
10282=0x1.8cc6cd5964a03p+0
10306=0x1.21ff2e48e8a72p-3
10315=0x1.4e3bcd35a8587p-3
10323=0x1.8cc6cd5964a03p+0
10326=0x1.0e5604189374cp-2
10327=0x1.f7e80389f83bep-2
10337=0x1.8cc6cd5964a03p+0
10371=0x1.4467381d7dbf4p-3
10372=0x1.c78361c9c98d1p-1
10391=0x1.bcec84f8f8a4bp-2
10393=0x1.df548ecd8dbcep-3
10401=0x1.3d859c8c9320dp-2
10403=0x1.0e5604189374cp-2
10418=0x1.1be6e653868fcp-2
10420=0x1.3d859c8c9320dp-2
10423=0x1.df548ecd8dbcep-3
10457=0x1.3d859c8c9320dp-2
10458=0x1.86a1f02a4a007p-1
10467=0x1.21ff2e48e8a72p-3
10470=0x1.1be6e653868fcp-2
10480=0x1.4467381d7dbf4p-3
10481=0x1.f7e80389f83bep-2
10519=0x1.130df9bdc69f8p-2
10538=0x1.a41faf72c9ccp-1
10557=0x1.df548ecd8dbcep-3
10559=0x1.a41faf72c9ccp-1
10587=0x1.4e09784ec636bp-2
10589=0x1.49cf56eac8605p-1
10593=0x1.c9363f572de43p-1
10637=0x1.49cf56eac8605p-1
11770=0x1.c9363f572de43p-1
11814=0x1.49cf56eac8605p-1
12947=0x1.c9363f572de43p-1
12965=0x1.bf487fcb923a2p-2
12991=0x1.310c11863a414p+0
14124=0x1.f1fb0498960e6p-1
14125=-0x1.bf487fcb923a2p-2
14127=-0x1.bf487fcb923a2p-2
14128=0x1.f1fb0498960e6p-1
14129=0x1.c9363f572de43p-1
14131=0x1.310c11863a414p+0
14133=0x1.12787d952c219p+0
14134=0x1.f1fb0498960e6p-1
14135=0x1.86a1f02a4a007p-1
14136=0x1.c3ce2089e3432p-3
14137=0x1.c9363f572de43p-1
14138=0x1.4467381d7dbf4p-3
14140=0x1.c3ce2089e3432p-3
14141=0x1.0c5eb313be22ep-2
14142=-0x1.c9363f572de43p-1
14143=0x1.8548a9bcfd4bep-4
14144=0x1.12787d952c219p+0
14145=0x1.c3ce2089e3432p-3
14146=-0x1.26e978d4fdf3bp-4
14147=0x1.bf487fcb923a2p-2
14148=0x1.f1fb0498960e6p-1
14149=0x1.930be0ded288dp-4
14150=0x1.12787d952c219p+0
14151=0x1.6e0e7b6ddf817p-1
14152=-0x1.bf487fcb923a2p-2
14153=0x1.49cf56eac8605p-1
14154=0x1.12787d952c219p+0
14155=0x1.c9363f572de43p-1
14156=0x1.c78361c9c98d1p-1
14157=0x1.a41faf72c9ccp-1
14158=0x1.c78361c9c98d1p-1
14160=-0x1.49cf56eac8605p-1
14161=0x1.eb851eb851eb8p-4
14162=0x1.f1fb0498960e6p-1
14163=0x1.f1fb0498960e6p-1
14164=0x1.12787d952c219p+0
14165=0x1.12787d952c219p+0
14166=0x1.6e0e7b6ddf817p-1
14167=0x1.310c11863a414p+0
14168=0x1.f1fb0498960e6p-1
14169=0x1.c78361c9c98d1p-1
14170=0x1.c3ce2089e3432p-3
14172=-0x1.bf487fcb923a2p-2
14174=-0x1.bf487fcb923a2p-2
14175=-0x1.bf487fcb923a2p-2
14176=-0x1.bf487fcb923a2p-2
14177=0x1.f1fb0498960e6p-1
14178=0x1.6e0e7b6ddf817p-1
14179=-0x1.49cf56eac8605p-1
14180=0x1.130df9bdc69f8p-2
14181=0x1.c3ce2089e3432p-3
14182=0x1.a6b50b0f27bb2p-3
14183=0x1.12787d952c219p+0
14185=0x1.12787d952c219p+0
14186=-0x1.bf487fcb923a2p-2
14187=-0x1.bf487fcb923a2p-2
14188=0x1.f1fb0498960e6p-1
14189=0x1.8bc59b8023a6cp-2
14190=-0x1.bf487fcb923a2p-2
14191=0x1.6e0e7b6ddf817p-1
14192=-0x1.bf487fcb923a2p-2
14193=-0x1.bf487fcb923a2p-2
14194=0x1.12787d952c219p+0
14195=0x1.0c5eb313be22ep-2
14196=-0x1.49cf56eac8605p-1
14197=0x1.8bc59b8023a6cp-2
14200=0x1.8bc59b8023a6cp-2
14201=0x1.f1fb0498960e6p-1
14202=0x1.bf487fcb923a2p-2
14204=-0x1.49cf56eac8605p-1
14205=-0x1.eb851eb851eb8p-4
14206=0x1.0c5eb313be22ep-2
14209=-0x1.49cf56eac8605p-1
14211=0x1.eb851eb851eb8p-4
14212=-0x1.49cf56eac8605p-1
14213=0x1.6e0e7b6ddf817p-1
14214=0x1.4467381d7dbf4p-3
14215=0x1.6e0e7b6ddf817p-1
14216=0x1.1f57b41bfbdfp-1
14217=0x1.0c5eb313be22ep-2
14218=-0x1.bf487fcb923a2p-2
14219=0x1.130df9bdc69f8p-2
14220=0x1.49cf56eac8605p-1
14221=-0x1.49cf56eac8605p-1
14222=-0x1.bf487fcb923a2p-2
14223=0x1.f1fb0498960e6p-1
14224=0x1.bf487fcb923a2p-2
14225=0x1.f1fb0498960e6p-1
14226=0x1.78811b1d92b8p-2
14227=0x1.3d859c8c9320dp-2
14228=0x1.0c5eb313be22ep-2
14229=-0x1.49cf56eac8605p-1
14230=-0x1.bf487fcb923a2p-2
14232=-0x1.bf487fcb923a2p-2
14233=0x1.3d859c8c9320dp-2
14234=0x1.c9363f572de43p-1
14235=-0x1.bf487fcb923a2p-2
14236=-0x1.bf487fcb923a2p-2
14238=-0x1.49cf56eac8605p-1
14239=0x1.f1fb0498960e6p-1
14240=-0x1.bf487fcb923a2p-2
14241=0x1.f1fb0498960e6p-1
14242=0x1.1f57b41bfbdfp-1
14245=0x1.12787d952c219p+0
14246=-0x1.eb851eb851eb8p-4
14247=-0x1.bf487fcb923a2p-2
14249=-0x1.49cf56eac8605p-1
14250=-0x1.bf487fcb923a2p-2
14251=-0x1.bf487fcb923a2p-2
14252=0x1.c78361c9c98d1p-1
14253=0x1.1f57b41bfbdfp-1
14254=-0x1.bf487fcb923a2p-2
14256=-0x1.49cf56eac8605p-1
14257=0x1.49cf56eac8605p-1
14259=-0x1.bf487fcb923a2p-2
14260=0x1.0c5eb313be22ep-2
14262=-0x1.bf487fcb923a2p-2
14263=-0x1.bf487fcb923a2p-2
14265=0x1.420b3d4ae429dp-3
14266=0x1.86a1f02a4a007p-1
14268=0x1.1f57b41bfbdfp-1
14269=0x1.1f57b41bfbdfp-1
14270=-0x1.bf487fcb923a2p-2
14271=-0x1.bf487fcb923a2p-2
14272=-0x1.bf487fcb923a2p-2
14274=-0x1.bf487fcb923a2p-2
14275=0x1.8a009f623076cp-4
14276=0x1.6e0e7b6ddf817p-1
14277=-0x1.bf487fcb923a2p-2
14278=-0x1.bf487fcb923a2p-2
14279=0x1.c3ce2089e3432p-3
14280=0x1.7f950b955f783p-2
14282=-0x1.bf487fcb923a2p-2
14283=-0x1.49cf56eac8605p-1
14285=0x1.6e0e7b6ddf817p-1
14286=-0x1.bf487fcb923a2p-2
14287=-0x1.bf487fcb923a2p-2
14288=-0x1.bf487fcb923a2p-2
14290=-0x1.bf487fcb923a2p-2
14291=0x1.6e0e7b6ddf817p-1
14294=0x1.0c5eb313be22ep-2
14295=0x1.eb851eb851eb8p-4
14296=-0x1.bf487fcb923a2p-2
14297=-0x1.bf487fcb923a2p-2
14298=-0x1.bf487fcb923a2p-2
14300=-0x1.49cf56eac8605p-1
14302=-0x1.bf487fcb923a2p-2
